{
  "parameters": {
    "feature_extractor.0.weight": [
      [
        [
          [
            0.16431699693202972,
            0.2611350119113922,
            0.11724799871444702,
            0.2462719976902008,
            0.28033700585365295
          ],
          [
            0.0939679965376854,
            -0.03649799898266792,
            -0.1632619947195053,
            0.04036099836230278,
            0.1732890009880066
          ],
          [
            -0.178288996219635,
            -0.3189539909362793,
            -0.3040739893913269,
            -0.23232600092887878,
            0.18480999767780304
          ],
          [
            -0.31310901045799255,
            -0.16281099617481232,
            -0.28280699253082275,
            -0.14830100536346436,
            0.23666100203990936
          ],
          [
            0.04131999984383583,
            0.1378280073404312,
            -0.13274000585079193,
            0.07645999640226364,
            0.05786500126123428
          ]
        ]
      ],
      [
        [
          [
            -0.12770399451255798,
            -0.04137900099158287,
            0.37218600511550903,
            0.3166329860687256,
            0.011855999939143658
          ],
          [
            -0.14159899950027466,
            0.23316900432109833,
            0.44924798607826233,
            -0.04847399890422821,
            -0.13449500501155853
          ],
          [
            -0.11559800058603287,
            0.16133199632167816,
            0.41655999422073364,
            0.020073000341653824,
            -0.13655899465084076
          ],
          [
            -0.014314999803900719,
            0.35660499334335327,
            0.17769500613212585,
            -0.05646200105547905,
            -0.15827800333499908
          ],
          [
            0.03588499873876572,
            0.3346030116081238,
            0.10977400094270706,
            0.13869300484657288,
            -0.07322199642658234
          ]
        ]
      ],
      [
        [
          [
            -0.38610100746154785,
            -0.20008699595928192,
            -0.09885299950838089,
            0.10683900117874146,
            -0.032728999853134155
          ],
          [
            -0.3187370002269745,
            -0.37775298953056335,
            -0.33518698811531067,
            -0.3109169900417328,
            -0.39833998680114746
          ],
          [
            0.07566700130701065,
            0.03524399921298027,
            -0.07976000010967255,
            -0.3275949954986572,
            -0.27191200852394104
          ],
          [
            0.2647469937801361,
            0.02612300030887127,
            0.15362100303173065,
            -0.02222999930381775,
            0.08362899720668793
          ],
          [
            0.06128700077533722,
            -0.14443500339984894,
            -0.1585790067911148,
            0.06049700081348419,
            0.05985400080680847
          ]
        ]
      ],
      [
        [
          [
            0.04740900173783302,
            0.21705399453639984,
            0.30401501059532166,
            0.19168299436569214,
            -0.04085699841380119
          ],
          [
            -0.47398099303245544,
            -0.41820600628852844,
            -0.32902899384498596,
            -0.4499480128288269,
            -0.33062300086021423
          ],
          [
            -0.2437240034341812,
            -0.3048210144042969,
            -0.35586801171302795,
            -0.18330200016498566,
            -0.11505100131034851
          ],
          [
            0.2544569969177246,
            0.11606299877166748,
            0.12552200257778168,
            0.24068300426006317,
            0.1411300003528595
          ],
          [
            0.03437399864196777,
            0.26883000135421753,
            0.2234649956226349,
            -0.03192799910902977,
            -0.07095199823379517
          ]
        ]
      ],
      [
        [
          [
            -0.21580800414085388,
            -0.25704699754714966,
            -0.0068789999932050705,
            -0.06774000078439713,
            -0.2338549941778183
          ],
          [
            -0.004327000118792057,
            -0.2925660014152527,
            -0.24446499347686768,
            -0.1373409926891327,
            0.1279969960451126
          ],
          [
            -0.21027399599552155,
            -0.2895990014076233,
            -0.0004729999927803874,
            0.07271400094032288,
            0.006248000077903271
          ],
          [
            -0.04396500065922737,
            0.16622699797153473,
            0.13937899470329285,
            0.1650789976119995,
            0.05127900093793869
          ],
          [
            0.3356209993362427,
            0.3955320119857788,
            0.15832200646400452,
            0.18842199444770813,
            -0.09858299791812897
          ]
        ]
      ],
      [
        [
          [
            -0.026120999827980995,
            -0.038329001516103745,
            -0.17033399641513824,
            -0.12692999839782715,
            -0.1981150060892105
          ],
          [
            -0.053015001118183136,
            -0.23824800550937653,
            0.0015109999803826213,
            -0.1797100007534027,
            0.021462000906467438
          ],
          [
            -0.17967499792575836,
            -0.1179250031709671,
            0.06347700208425522,
            0.26344698667526245,
            -0.0890979990363121
          ],
          [
            -0.08122599869966507,
            0.1733510047197342,
            0.46000298857688904,
            0.3913530111312866,
            0.14640900492668152
          ],
          [
            -0.11025500297546387,
            0.16870899498462677,
            0.13110700249671936,
            0.07967700064182281,
            0.09566400200128555
          ]
        ]
      ]
    ],
    "feature_extractor.0.bias": [
      -0.019173000007867813,
      0.12094099819660187,
      -0.24464300274848938,
      -0.0848739966750145,
      -0.16425800323486328,
      -0.12667299807071686
    ],
    "feature_extractor.3.weight": [
      [
        [
          [
            -0.11995700001716614,
            -0.07357300072908401,
            0.02613699994981289,
            0.1677040010690689,
            0.14177599549293518
          ],
          [
            -0.09446600079536438,
            -0.21598699688911438,
            -0.1879280060529709,
            -0.10360799729824066,
            0.04239099845290184
          ],
          [
            0.022995000705122948,
            0.06666199862957001,
            0.2705189883708954,
            0.2642030119895935,
            0.11344700306653976
          ],
          [
            0.19670799374580383,
            0.23833200335502625,
            0.12561200559139252,
            -0.02711299993097782,
            -0.004011000040918589
          ],
          [
            -0.09916500002145767,
            -0.18602700531482697,
            -0.17467699944972992,
            -0.09960699826478958,
            0.09313800185918808
          ]
        ],
        [
          [
            0.1294739991426468,
            0.09858699887990952,
            0.11815900355577469,
            0.12282499670982361,
            0.16893400251865387
          ],
          [
            0.042445000261068344,
            0.0731389969587326,
            0.1708579957485199,
            0.16440199315547943,
            0.15226100385189056
          ],
          [
            0.06786300241947174,
            0.03828300163149834,
            0.02730800025165081,
            -0.07290299981832504,
            -0.06923600286245346
          ],
          [
            -0.016558999195694923,
            -0.02629600092768669,
            -0.0641700029373169,
            -0.14944499731063843,
            -0.11583100259304047
          ],
          [
            0.09196600317955017,
            0.10859200358390808,
            -0.10562500357627869,
            -0.09966299682855606,
            -0.2687099874019623
          ]
        ],
        [
          [
            -0.03455200046300888,
            -0.047561999410390854,
            -0.044610001146793365,
            -0.005807000212371349,
            -0.09859800338745117
          ],
          [
            -0.05754999816417694,
            -0.11371300369501114,
            -0.02510399930179119,
            -0.0010400000028312206,
            0.08200500160455704
          ],
          [
            -0.02694600075483322,
            -0.05449900031089783,
            0.10223499685525894,
            0.06930399686098099,
            0.022995000705122948
          ],
          [
            0.045389000326395035,
            0.03939500078558922,
            0.11883600056171417,
            0.06995400041341782,
            -0.16364899277687073
          ],
          [
            0.08140400052070618,
            -0.011874999850988388,
            -0.13934899866580963,
            -0.1259240061044693,
            -0.1703760027885437
          ]
        ],
        [
          [
            -0.015309000387787819,
            0.08581399917602539,
            0.17250700294971466,
            0.1318890005350113,
            0.09233599901199341
          ],
          [
            -0.03403099998831749,
            -0.03892099857330322,
            0.05333700031042099,
            0.07781100273132324,
            0.11432799696922302
          ],
          [
            -0.0366629995405674,
            -0.03743100166320801,
            0.03992199897766113,
            0.1856749951839447,
            0.14622099697589874
          ],
          [
            0.13592900335788727,
            0.2892409861087799,
            0.3386189937591553,
            0.1441349983215332,
            -0.11330900341272354
          ],
          [
            0.10281600058078766,
            -0.01729699969291687,
            -0.048757001757621765,
            -0.1404380053281784,
            -0.28318700194358826
          ]
        ],
        [
          [
            -0.10392899811267853,
            -0.017395000904798508,
            0.1582150012254715,
            0.0837630033493042,
            0.04948500171303749
          ],
          [
            -0.048555001616477966,
            -0.06027499958872795,
            -0.0648069977760315,
            -0.09795799851417542,
            -0.027542000636458397
          ],
          [
            -0.09563899785280228,
            -0.2304369956254959,
            -0.17222300171852112,
            -0.08952599763870239,
            0.06397899985313416
          ],
          [
            0.051201000809669495,
            0.1940779983997345,
            0.3138369917869568,
            0.19333100318908691,
            -0.029221000149846077
          ],
          [
            0.1953350007534027,
            0.18168899416923523,
            -0.013253999873995781,
            -0.09240999817848206,
            -0.09883400052785873
          ]
        ],
        [
          [
            0.17112000286579132,
            0.1483979970216751,
            0.06756199896335602,
            0.10282699763774872,
            -0.02726699970662594
          ],
          [
            0.14754299819469452,
            0.07725600153207779,
            0.06804099678993225,
            -0.03203500062227249,
            -0.05522200092673302
          ],
          [
            -0.09771399945020676,
            -0.32488301396369934,
            -0.2420870065689087,
            -0.07885599881410599,
            0.11523500084877014
          ],
          [
            -0.0409960001707077,
            0.09531799703836441,
            0.05592000111937523,
            0.05542900040745735,
            0.01081900019198656
          ],
          [
            0.19954000413417816,
            0.17984099686145782,
            0.0470380000770092,
            -0.08806400001049042,
            -0.13166700303554535
          ]
        ]
      ],
      [
        [
          [
            0.03856800124049187,
            -0.01611199975013733,
            0.023029999807476997,
            0.12306100130081177,
            0.13809099793434143
          ],
          [
            -0.019368000328540802,
            -0.08067800104618073,
            0.08059900254011154,
            0.0033309999853372574,
            -0.11447799950838089
          ],
          [
            -0.22724400460720062,
            -0.311706006526947,
            -0.18192200362682343,
            -0.08710899949073792,
            -0.08103299885988235
          ],
          [
            -0.02663400024175644,
            -0.2366960048675537,
            0.029745999723672867,
            0.2442599982023239,
            0.3492479920387268
          ],
          [
            0.03043299913406372,
            -0.10637599974870682,
            0.13494400680065155,
            0.10733500123023987,
            0.047155000269412994
          ]
        ],
        [
          [
            0.02153800055384636,
            0.02868800051510334,
            -0.005402000155299902,
            -0.07403700053691864,
            -0.12475500255823135
          ],
          [
            0.001259000040590763,
            0.12701399624347687,
            -0.015302999876439571,
            0.020904000848531723,
            -0.04023699834942818
          ],
          [
            0.025464000180363655,
            0.14720000326633453,
            0.08032499998807907,
            0.05821400135755539,
            0.0540819987654686
          ],
          [
            0.21254900097846985,
            0.26291701197624207,
            0.24441899359226227,
            0.09994900226593018,
            0.11670699715614319
          ],
          [
            0.04897800087928772,
            0.13226300477981567,
            0.07826799899339676,
            -0.019802000373601913,
            0.06044299900531769
          ]
        ],
        [
          [
            -0.012659000232815742,
            -0.004178999923169613,
            -0.02593900077044964,
            0.04837200045585632,
            0.08390899747610092
          ],
          [
            0.01838500052690506,
            0.07386600226163864,
            0.07053100317716599,
            0.1461780071258545,
            0.015817999839782715
          ],
          [
            -0.06211800128221512,
            -0.06235399842262268,
            -0.06656499952077866,
            -0.0606359988451004,
            -0.166935995221138
          ],
          [
            -0.13591699302196503,
            -0.08809000253677368,
            -0.08999499678611755,
            -0.08500400185585022,
            -0.1564980000257492
          ],
          [
            -0.06384599953889847,
            -0.11429499834775925,
            0.078125,
            0.0778999999165535,
            0.015595000237226486
          ]
        ],
        [
          [
            0.0025430000387132168,
            0.03278899937868118,
            0.023228999227285385,
            -0.009642000310122967,
            0.10613399744033813
          ],
          [
            0.06835400313138962,
            0.09916099905967712,
            0.10724999755620956,
            0.19603000581264496,
            0.14083200693130493
          ],
          [
            -0.11195900291204453,
            -0.07253299653530121,
            0.021534999832510948,
            -0.021578000858426094,
            -0.04431099817156792
          ],
          [
            0.048650000244379044,
            -0.01107999961823225,
            -0.003315000096336007,
            0.09602300077676773,
            0.05727899819612503
          ],
          [
            0.004135000053793192,
            -0.018081000074744225,
            0.17097899317741394,
            0.20276400446891785,
            0.2293419986963272
          ]
        ],
        [
          [
            -0.0439319983124733,
            -0.019812999293208122,
            -0.003283000085502863,
            0.02086699940264225,
            0.048406001180410385
          ],
          [
            0.10704000294208527,
            0.16961699724197388,
            0.20424500107765198,
            0.17007499933242798,
            0.2746120095252991
          ],
          [
            -0.055208999663591385,
            -0.07492999732494354,
            0.025211000815033913,
            -0.007017000112682581,
            -0.07363899797201157
          ],
          [
            -0.11145800352096558,
            -0.12442199885845184,
            -0.17618300020694733,
            -0.09575299918651581,
            -0.11297199875116348
          ],
          [
            -0.08128499984741211,
            -0.26670199632644653,
            -0.062435001134872437,
            0.09230799973011017,
            0.16700999438762665
          ]
        ],
        [
          [
            0.026103999465703964,
            -0.09655400365591049,
            -0.044220998883247375,
            -0.12224599719047546,
            -0.07896800339221954
          ],
          [
            0.10382899641990662,
            0.03231099992990494,
            0.03168899938464165,
            0.22288000583648682,
            0.23399700224399567
          ],
          [
            0.1173740029335022,
            0.11554700136184692,
            0.062369998544454575,
            0.1135450005531311,
            -0.05183500051498413
          ],
          [
            0.09059999883174896,
            0.05066300183534622,
            -0.19921399652957916,
            -0.1443219929933548,
            -0.13992799818515778
          ],
          [
            0.014721999876201153,
            -0.10763200372457504,
            -0.08962900191545486,
            0.05960499867796898,
            0.06348700076341629
          ]
        ]
      ],
      [
        [
          [
            0.016728999093174934,
            0.06679999828338623,
            0.15846499800682068,
            0.25458699464797974,
            0.1675489991903305
          ],
          [
            -0.07556699961423874,
            -0.18132899701595306,
            0.0835300013422966,
            0.1602730005979538,
            -0.07368899881839752
          ],
          [
            0.11714000254869461,
            -0.08664699643850327,
            -0.08516400307416916,
            0.02867100015282631,
            -0.16159799695014954
          ],
          [
            0.22983600199222565,
            0.14039400219917297,
            0.09855800122022629,
            -0.09984300285577774,
            -0.051284000277519226
          ],
          [
            0.13138200342655182,
            0.21431800723075867,
            0.02367500029504299,
            -0.18739600479602814,
            0.0245130006223917
          ]
        ],
        [
          [
            -0.12238900363445282,
            -0.12402299791574478,
            -0.1776690036058426,
            -0.12548500299453735,
            -0.0906360000371933
          ],
          [
            -0.13623300194740295,
            -0.01815900020301342,
            -0.06203800067305565,
            -0.0867369994521141,
            0.09658800065517426
          ],
          [
            0.13323800265789032,
            0.18379299342632294,
            0.07460399717092514,
            0.20144200325012207,
            0.19833999872207642
          ],
          [
            0.1533699929714203,
            0.2536180019378662,
            0.2688339948654175,
            0.2606469988822937,
            0.2026679962873459
          ],
          [
            0.023479999974370003,
            0.24384699761867523,
            0.07614599913358688,
            0.13012799620628357,
            0.007666000165045261
          ]
        ],
        [
          [
            -0.07805400341749191,
            -0.06247600167989731,
            -0.09040000289678574,
            -0.11520799994468689,
            0.0016299999551847577
          ],
          [
            0.038548000156879425,
            0.008809000253677368,
            0.092739999294281,
            0.0118410000577569,
            -0.11138299852609634
          ],
          [
            -0.06308700144290924,
            -0.019272999837994576,
            -0.016057999804615974,
            -0.0073460000567138195,
            -0.07772599905729294
          ],
          [
            0.024250000715255737,
            -0.042419999837875366,
            -0.07191500067710876,
            -0.018724000081419945,
            0.04199200123548508
          ],
          [
            0.15738700330257416,
            0.03270899876952171,
            0.023719999939203262,
            -0.021234000101685524,
            0.038437001407146454
          ]
        ],
        [
          [
            0.09562099725008011,
            0.13053900003433228,
            0.004519000183790922,
            -0.03927699849009514,
            -0.1001100018620491
          ],
          [
            0.015838000923395157,
            0.11145000159740448,
            0.17915700376033783,
            0.14067800343036652,
            -0.05564900115132332
          ],
          [
            0.03674500063061714,
            0.058428000658750534,
            -0.0007210000185295939,
            0.019336000084877014,
            -0.15564100444316864
          ],
          [
            0.15200500190258026,
            0.1570889949798584,
            0.09225299954414368,
            -0.010858999565243721,
            0.08154699951410294
          ],
          [
            0.19188299775123596,
            0.2193479984998703,
            0.022802000865340233,
            -0.057757001370191574,
            0.026938000693917274
          ]
        ],
        [
          [
            0.08549900352954865,
            0.15155400335788727,
            0.01644900068640709,
            -0.012567000463604927,
            0.14363400638103485
          ],
          [
            -0.07502800226211548,
            0.09384199976921082,
            -0.05012999847531319,
            0.08645100146532059,
            0.2224999964237213
          ],
          [
            -0.11010199785232544,
            -0.10014499723911285,
            -0.10944899916648865,
            0.06743700057268143,
            -0.005150000099092722
          ],
          [
            -0.10672099888324738,
            -0.16849899291992188,
            -0.13774999976158142,
            -0.01858000084757805,
            -0.08483199775218964
          ],
          [
            0.08211100101470947,
            0.10571099817752838,
            0.05112399905920029,
            -0.11311700195074081,
            -0.03547300025820732
          ]
        ],
        [
          [
            -0.07647199928760529,
            -0.08436600118875504,
            -0.19336000084877014,
            -0.07517799735069275,
            0.12401899695396423
          ],
          [
            0.026816999539732933,
            0.09253600239753723,
            0.0050849998369812965,
            0.04779599979519844,
            0.19369900226593018
          ],
          [
            -0.04981499910354614,
            -0.06554199755191803,
            -0.03053100034594536,
            0.1506119966506958,
            -0.03800399973988533
          ],
          [
            -0.18216300010681152,
            -0.13763700425624847,
            0.04067400097846985,
            0.18235400319099426,
            -0.0023139999248087406
          ],
          [
            -0.1238349974155426,
            -0.10067100077867508,
            0.045896999537944794,
            0.01775299943983555,
            0.10164599865674973
          ]
        ]
      ],
      [
        [
          [
            -0.056306999176740646,
            -0.027021000161767006,
            0.13143299520015717,
            0.15768000483512878,
            0.24700899422168732
          ],
          [
            -0.09214700013399124,
            0.09405499696731567,
            0.1267549991607666,
            0.10691499710083008,
            -0.004342000000178814
          ],
          [
            -0.27691900730133057,
            -0.16595600545406342,
            -0.16063499450683594,
            -0.09157899767160416,
            -0.23140500485897064
          ],
          [
            -0.16262200474739075,
            -0.06350599974393845,
            -0.048158999532461166,
            0.01030499953776598,
            0.051697999238967896
          ],
          [
            0.1950570046901703,
            0.11498600244522095,
            0.11174699664115906,
            0.14878599345684052,
            0.041138000786304474
          ]
        ],
        [
          [
            -0.016838999465107918,
            -0.04101800173521042,
            -0.03329800069332123,
            -0.016610000282526016,
            -6.399999983841553e-05
          ],
          [
            0.0778769999742508,
            -0.05476199835538864,
            0.06556899845600128,
            0.08451800048351288,
            0.05677099898457527
          ],
          [
            0.07476300001144409,
            0.03545600175857544,
            0.058090001344680786,
            0.07894700020551682,
            0.061156999319791794
          ],
          [
            0.11776400357484818,
            0.1359969973564148,
            0.21152499318122864,
            0.11540000140666962,
            -0.00033999999868683517
          ],
          [
            0.043595001101493835,
            0.0925230011343956,
            0.05402600020170212,
            -0.0403980016708374,
            -0.17133000493049622
          ]
        ],
        [
          [
            -0.04984299838542938,
            0.033163998275995255,
            0.11335700005292892,
            -0.05529100075364113,
            0.025522999465465546
          ],
          [
            0.06351800262928009,
            0.09893299639225006,
            0.04181699827313423,
            0.09034299850463867,
            0.06646899878978729
          ],
          [
            0.08946900069713593,
            0.038081999868154526,
            0.02171199955046177,
            0.053488001227378845,
            0.0372919999063015
          ],
          [
            -0.10607799887657166,
            -0.11377400159835815,
            -0.04057899862527847,
            -0.07309100031852722,
            -0.055656999349594116
          ],
          [
            -0.07922700047492981,
            -0.09716299921274185,
            -0.05684699863195419,
            0.026055000722408295,
            -0.1292629987001419
          ]
        ],
        [
          [
            0.0685420036315918,
            0.0312890000641346,
            0.08668100088834763,
            0.20036999881267548,
            0.17302000522613525
          ],
          [
            0.10897000133991241,
            0.1575540006160736,
            0.19874699413776398,
            0.25146201252937317,
            0.24025499820709229
          ],
          [
            -0.04610100015997887,
            0.015317000448703766,
            0.13964900374412537,
            0.08378899842500687,
            -0.03070800006389618
          ],
          [
            -0.2145960032939911,
            -0.1586350053548813,
            -0.1608790010213852,
            -0.22374700009822845,
            -0.19812899827957153
          ],
          [
            -0.11938799917697906,
            -0.07990700006484985,
            -0.10987000167369843,
            -0.04912099987268448,
            -0.12961900234222412
          ]
        ],
        [
          [
            0.02912900038063526,
            0.007550999987870455,
            0.0929270014166832,
            -0.059147000312805176,
            0.08071800321340561
          ],
          [
            0.034894999116659164,
            0.007577999960631132,
            0.1538349986076355,
            0.19778800010681152,
            0.26315200328826904
          ],
          [
            0.0243539996445179,
            0.16173100471496582,
            0.15501299500465393,
            0.12835100293159485,
            0.07168599963188171
          ],
          [
            -0.1927970051765442,
            -0.15669600665569305,
            0.014693000353872776,
            -0.13637800514698029,
            -0.13583500683307648
          ],
          [
            -0.2141129970550537,
            -0.1058489978313446,
            -0.15399600565433502,
            -0.1528490036725998,
            -0.045308999717235565
          ]
        ],
        [
          [
            -0.012269999831914902,
            -0.13281700015068054,
            -0.10308200120925903,
            -0.1421699970960617,
            -0.02662299945950508
          ],
          [
            -0.020837999880313873,
            -0.059498000890016556,
            -0.027435999363660812,
            0.09735699743032455,
            0.1983419954776764
          ],
          [
            0.17245100438594818,
            0.15714499354362488,
            0.13063499331474304,
            0.2028290033340454,
            0.12824000418186188
          ],
          [
            -0.006161999888718128,
            0.012051000259816647,
            -0.04353899881243706,
            0.035909999161958694,
            -0.01373900007456541
          ],
          [
            -0.13406600058078766,
            -0.17269499599933624,
            -0.15025800466537476,
            -0.048273999243974686,
            0.12176299840211868
          ]
        ]
      ],
      [
        [
          [
            -0.0343330018222332,
            -0.06112299859523773,
            -0.09488700330257416,
            0.004540000110864639,
            0.03649900108575821
          ],
          [
            0.0435589998960495,
            -0.08090099692344666,
            -0.23735199868679047,
            -0.14536400139331818,
            -0.07488500326871872
          ],
          [
            0.1892320066690445,
            0.18846000730991364,
            0.0037239999510347843,
            -0.17770500481128693,
            -0.1326259970664978
          ],
          [
            0.015974000096321106,
            0.1158910021185875,
            0.17735399305820465,
            -0.030762000009417534,
            -0.17563000321388245
          ],
          [
            -0.03335399925708771,
            0.10097400099039078,
            0.1598680019378662,
            0.061601001769304276,
            0.060433000326156616
          ]
        ],
        [
          [
            0.15680700540542603,
            0.14398899674415588,
            0.22451500594615936,
            0.026451999321579933,
            0.06545499712228775
          ],
          [
            0.10317999869585037,
            0.2323489934206009,
            0.21406899392604828,
            0.19541600346565247,
            -0.020368000492453575
          ],
          [
            0.15559999644756317,
            0.23153899610042572,
            0.2207459956407547,
            0.15915100276470184,
            -0.021825000643730164
          ],
          [
            0.14477600157260895,
            0.1646910011768341,
            -0.031238999217748642,
            -0.015639999881386757,
            0.07388799637556076
          ],
          [
            0.12445899844169617,
            -0.010932999663054943,
            -0.1246350035071373,
            -0.1343570053577423,
            -0.05429700016975403
          ]
        ],
        [
          [
            0.025536000728607178,
            0.04315999895334244,
            0.008271999657154083,
            0.14026500284671783,
            0.06765200197696686
          ],
          [
            -0.005197999998927116,
            0.007455999962985516,
            0.06954699754714966,
            0.11576499789953232,
            0.05176899954676628
          ],
          [
            0.08681900054216385,
            0.02680099941790104,
            0.01199399959295988,
            0.06786800175905228,
            0.11255399882793427
          ],
          [
            0.17672200500965118,
            0.03913399949669838,
            0.12188900262117386,
            0.08679399639368057,
            0.05186399817466736
          ],
          [
            0.1306920051574707,
            0.14512899518013,
            0.11843500286340714,
            0.032228998839855194,
            -0.06494999676942825
          ]
        ],
        [
          [
            -0.01572199910879135,
            0.14348000288009644,
            0.20276500284671783,
            0.13120900094509125,
            0.13004299998283386
          ],
          [
            0.030091000720858574,
            0.007271000184118748,
            -0.031088000163435936,
            0.06513100117444992,
            0.04369699954986572
          ],
          [
            0.12681500613689423,
            0.158719003200531,
            0.0920799970626831,
            -0.04895099997520447,
            0.02996399998664856
          ],
          [
            0.21582800149917603,
            0.17937999963760376,
            0.0998459979891777,
            -0.10687199980020523,
            -0.1402589976787567
          ],
          [
            0.11398199945688248,
            0.26357200741767883,
            0.16526100039482117,
            0.05097699910402298,
            -0.16387200355529785
          ]
        ],
        [
          [
            -0.10856500267982483,
            0.03179299831390381,
            0.09283299744129181,
            0.1789429932832718,
            0.10539499670267105
          ],
          [
            -0.10406900197267532,
            -0.10710100084543228,
            0.002259999979287386,
            -0.01875299960374832,
            0.1103610023856163
          ],
          [
            -0.007675000000745058,
            -0.0032599999103695154,
            -0.14466799795627594,
            -0.10252299904823303,
            -0.09493300318717957
          ],
          [
            0.15503400564193726,
            0.16350999474525452,
            -0.06769300252199173,
            -0.23522299528121948,
            -0.13051199913024902
          ],
          [
            0.13270799815654755,
            0.1685670018196106,
            0.12321899831295013,
            -0.09737300127744675,
            -0.08463100343942642
          ]
        ],
        [
          [
            0.15826499462127686,
            0.15786300599575043,
            0.17166300117969513,
            0.09200599789619446,
            0.07071799784898758
          ],
          [
            -0.031116999685764313,
            0.08883699774742126,
            0.10228700190782547,
            0.1273369938135147,
            0.14762799441814423
          ],
          [
            -0.02718299999833107,
            -0.0049600000493228436,
            0.04525600001215935,
            0.12299899756908417,
            0.23064300417900085
          ],
          [
            -0.0060629998333752155,
            -0.14330199360847473,
            -0.03426700085401535,
            -0.06478899717330933,
            0.17755700647830963
          ],
          [
            0.0510139986872673,
            -0.10807500034570694,
            -0.09882699698209763,
            -0.052744001150131226,
            0.1024319976568222
          ]
        ]
      ],
      [
        [
          [
            0.06858000159263611,
            -0.11583299934864044,
            -0.3033300042152405,
            -0.007040000054985285,
            -0.076774001121521
          ],
          [
            0.004472999833524227,
            -0.22803199291229248,
            -0.0573199987411499,
            -0.021848000586032867,
            0.022693000733852386
          ],
          [
            -0.2063239961862564,
            -0.1191829964518547,
            -0.04579799994826317,
            0.08371400088071823,
            0.08553799986839294
          ],
          [
            -0.1468449980020523,
            -0.09998100250959396,
            -0.0969809964299202,
            0.07933799922466278,
            -0.04399299994111061
          ],
          [
            -0.09790000319480896,
            -0.07251899689435959,
            -0.09857899695634842,
            -0.1459449976682663,
            0.0012280000373721123
          ]
        ],
        [
          [
            -0.15573400259017944,
            -0.00850600004196167,
            -0.03329699859023094,
            -0.057507000863552094,
            0.0083600003272295
          ],
          [
            -0.13979500532150269,
            -0.10870900005102158,
            -0.1530580073595047,
            -0.22298799455165863,
            0.006453999783843756
          ],
          [
            -0.0035210000351071358,
            -0.06579799950122833,
            -0.15513400733470917,
            -0.15231099724769592,
            0.005412000231444836
          ],
          [
            0.10406100004911423,
            -0.07724999636411667,
            -0.02246999926865101,
            -0.07850199937820435,
            0.038008999079465866
          ],
          [
            0.06351400166749954,
            -0.03353099897503853,
            -0.013883999548852444,
            0.013198000378906727,
            -0.0011749999830499291
          ]
        ],
        [
          [
            0.21414799988269806,
            0.0849509984254837,
            -0.022739000618457794,
            -0.1252560019493103,
            -0.05033399909734726
          ],
          [
            -0.006391000002622604,
            -0.043783999979496,
            -0.12264899909496307,
            -0.10957500338554382,
            -0.01700199954211712
          ],
          [
            0.03407000005245209,
            -0.1905519962310791,
            -0.07882300019264221,
            -0.05800100043416023,
            -0.05075500160455704
          ],
          [
            -0.14293299615383148,
            -0.13493600487709045,
            0.006684000138193369,
            -0.14837999641895294,
            -0.04698200151324272
          ],
          [
            -0.10488200187683105,
            0.02002199925482273,
            -0.0369499996304512,
            -0.06600599735975266,
            0.0055069997906684875
          ]
        ],
        [
          [
            0.049710001796483994,
            -0.0846019983291626,
            -0.18318399786949158,
            -0.30853599309921265,
            -0.13312700390815735
          ],
          [
            0.00850799959152937,
            -0.23627999424934387,
            -0.3038739860057831,
            -0.28975000977516174,
            -0.1865749955177307
          ],
          [
            -0.04881399869918823,
            -0.17332200706005096,
            -0.14419099688529968,
            -0.22309400141239166,
            -0.19291000068187714
          ],
          [
            -0.03991800174117088,
            -0.10130000114440918,
            -0.052639998495578766,
            -0.13972899317741394,
            -0.13230200111865997
          ],
          [
            -0.1283469945192337,
            -0.06499399989843369,
            0.006384999956935644,
            -0.06672599911689758,
            -0.04425299912691116
          ]
        ],
        [
          [
            0.05020400136709213,
            0.25767698884010315,
            -0.022036999464035034,
            -0.23833699524402618,
            -0.16188499331474304
          ],
          [
            0.29305800795555115,
            0.16332000494003296,
            -0.005113000050187111,
            -0.10513299703598022,
            -0.008415999822318554
          ],
          [
            0.2096789926290512,
            0.006260999944061041,
            -0.07245299965143204,
            -0.0934780016541481,
            0.06385599821805954
          ],
          [
            -0.02096400037407875,
            -0.16174599528312683,
            -0.10954400151968002,
            0.012546000070869923,
            0.009953999891877174
          ],
          [
            -0.14271600544452667,
            -0.1681089997291565,
            -0.02061999961733818,
            -0.044411998242139816,
            -0.003003000048920512
          ]
        ],
        [
          [
            0.02873300015926361,
            0.23277899622917175,
            0.004215000197291374,
            0.00622999994084239,
            0.08139300346374512
          ],
          [
            0.2031880021095276,
            0.050595998764038086,
            0.07837700098752975,
            0.001512999995611608,
            0.08563300222158432
          ],
          [
            0.07985100150108337,
            0.025682000443339348,
            -0.0023709998931735754,
            0.07233399897813797,
            0.13383899629116058
          ],
          [
            0.014860999770462513,
            -0.06016400083899498,
            -0.04314500093460083,
            0.06872499734163284,
            0.025925999507308006
          ],
          [
            -0.007060999982059002,
            -0.03514799848198891,
            0.11360099911689758,
            0.06985300034284592,
            -0.035300999879837036
          ]
        ]
      ],
      [
        [
          [
            0.003602999961003661,
            -0.02198299951851368,
            -0.008321000263094902,
            -0.24333499372005463,
            -0.12421300262212753
          ],
          [
            0.03523999825119972,
            -0.1130089983344078,
            -0.07664400339126587,
            -0.04338600113987923,
            -0.10176199674606323
          ],
          [
            -0.10503000020980835,
            -0.1307229995727539,
            -0.002392000053077936,
            0.18472599983215332,
            -0.013477000407874584
          ],
          [
            0.35722899436950684,
            0.3173609972000122,
            0.3820050060749054,
            0.405472993850708,
            0.507532000541687
          ],
          [
            0.025004999712109566,
            -0.08491600304841995,
            -0.16517500579357147,
            -0.05630800127983093,
            0.20371399819850922
          ]
        ],
        [
          [
            0.08570399880409241,
            0.1087770015001297,
            0.03275400027632713,
            0.09783600270748138,
            0.07455199956893921
          ],
          [
            -0.027499999850988388,
            0.06898800283670425,
            0.09438300132751465,
            0.06000800058245659,
            0.06214600056409836
          ],
          [
            -0.07150000333786011,
            -0.08616100251674652,
            -0.13405199348926544,
            -0.14426299929618835,
            0.04581499844789505
          ],
          [
            -0.14085599780082703,
            0.018363000825047493,
            -0.07104399800300598,
            -0.10563000291585922,
            -0.07528699934482574
          ],
          [
            -0.17508099973201752,
            -0.05213399976491928,
            -0.0031250000465661287,
            0.05951499938964844,
            -0.01776299998164177
          ]
        ],
        [
          [
            -0.07563100010156631,
            -0.07304699718952179,
            -0.05383000150322914,
            -0.05628199875354767,
            -0.018667999655008316
          ],
          [
            -0.01309799961745739,
            -0.053658999502658844,
            -0.053272999823093414,
            -0.008810999803245068,
            -0.11401700228452682
          ],
          [
            -0.017833000048995018,
            0.052643001079559326,
            0.0034890000242739916,
            -0.08077599853277206,
            -0.04752499982714653
          ],
          [
            0.07366500049829483,
            0.039733000099658966,
            0.17360199987888336,
            0.08412099629640579,
            -0.052650999277830124
          ],
          [
            0.09764999896287918,
            0.13819700479507446,
            0.10952000319957733,
            0.07959099858999252,
            0.14282800257205963
          ]
        ],
        [
          [
            -0.04915599897503853,
            -0.04114900156855583,
            -0.09149199724197388,
            -0.11935500055551529,
            -0.04224099963903427
          ],
          [
            -0.015146000310778618,
            0.04384100064635277,
            -0.078186996281147,
            -0.058150000870227814,
            -0.056210000067949295
          ],
          [
            -0.04201300069689751,
            -0.09140700101852417,
            -0.006916999816894531,
            -0.06863299757242203,
            -0.23403200507164001
          ],
          [
            0.027807999402284622,
            0.03235999867320061,
            0.17669999599456787,
            0.08428899943828583,
            0.06436800211668015
          ],
          [
            0.15766799449920654,
            0.12362699955701828,
            0.0518140010535717,
            0.12765799462795258,
            0.17124800384044647
          ]
        ],
        [
          [
            -0.04417400062084198,
            0.027852000668644905,
            -0.04791700094938278,
            -0.11034899950027466,
            -0.21326600015163422
          ],
          [
            0.04383999854326248,
            0.07604999840259552,
            -0.08109799772500992,
            -0.18517500162124634,
            -0.15179400146007538
          ],
          [
            -0.03763899952173233,
            -0.18478700518608093,
            -0.2814759910106659,
            -0.19778099656105042,
            -0.2725119888782501
          ],
          [
            -0.09154699742794037,
            -0.022352000698447227,
            0.07630400359630585,
            0.05553299933671951,
            0.030155999585986137
          ],
          [
            0.11038800328969955,
            0.02049100026488304,
            0.1326809972524643,
            0.19152699410915375,
            0.08553999662399292
          ]
        ],
        [
          [
            0.012539000250399113,
            0.043946001678705215,
            0.07153499871492386,
            0.18654799461364746,
            -0.0037879999727010727
          ],
          [
            0.19454799592494965,
            0.11650499701499939,
            0.012492000125348568,
            0.04670799896121025,
            0.15853600203990936
          ],
          [
            0.0965379998087883,
            -0.11189500242471695,
            -0.2344760000705719,
            -0.26738300919532776,
            -0.03801500052213669
          ],
          [
            -0.0888649970293045,
            -0.1689929962158203,
            -0.08952800184488297,
            -0.22436299920082092,
            -0.24986399710178375
          ],
          [
            0.22673299908638,
            0.2342970073223114,
            0.07836399972438812,
            -0.034793999046087265,
            -0.19392800331115723
          ]
        ]
      ],
      [
        [
          [
            0.03393400087952614,
            0.13827499747276306,
            0.09857200086116791,
            0.18073000013828278,
            0.19596600532531738
          ],
          [
            -0.05190199986100197,
            0.217617005109787,
            -0.04527699947357178,
            -0.12748600542545319,
            0.057339999824762344
          ],
          [
            0.009189000353217125,
            0.19168800115585327,
            -0.037588998675346375,
            -0.2501710057258606,
            0.02922300063073635
          ],
          [
            0.008328000083565712,
            0.30396199226379395,
            -0.08137000352144241,
            -0.20839600265026093,
            0.05438600108027458
          ],
          [
            -0.05723699927330017,
            0.2506679892539978,
            0.03466299921274185,
            -0.028641000390052795,
            0.20142200589179993
          ]
        ],
        [
          [
            -0.08313299715518951,
            -0.08237099647521973,
            -0.08618900179862976,
            0.011225000023841858,
            -0.10169800370931625
          ],
          [
            0.027313999831676483,
            -0.10744299739599228,
            0.12461099773645401,
            0.11449600011110306,
            -0.05854399874806404
          ],
          [
            0.00509499991312623,
            0.0018100000452250242,
            0.30577000975608826,
            0.16798000037670135,
            0.0645349994301796
          ],
          [
            0.1041790023446083,
            0.02953599952161312,
            0.24289199709892273,
            0.23333700001239777,
            0.1290850043296814
          ],
          [
            0.09606300294399261,
            -0.06915800273418427,
            0.018995000049471855,
            0.1111219972372055,
            -0.0445530004799366
          ]
        ],
        [
          [
            -0.11974699795246124,
            -0.03149700164794922,
            -0.0014009999576956034,
            0.014955000020563602,
            0.08487900346517563
          ],
          [
            -0.08621200174093246,
            -0.011134999804198742,
            -0.05489100143313408,
            -0.033838000148534775,
            0.017162000760436058
          ],
          [
            -0.019889000803232193,
            -0.06763800233602524,
            -0.08948499709367752,
            -0.1321060061454773,
            0.08009999990463257
          ],
          [
            0.04752400144934654,
            -0.13555599749088287,
            -0.14322799444198608,
            0.0008089999901130795,
            0.05992300063371658
          ],
          [
            0.01928200013935566,
            -0.18231800198554993,
            -0.17193999886512756,
            -0.025327999144792557,
            -0.0255730003118515
          ]
        ],
        [
          [
            -0.013344000093638897,
            -0.027753999456763268,
            0.038214001804590225,
            0.12779299914836884,
            0.07514200359582901
          ],
          [
            0.08566199988126755,
            0.062380000948905945,
            0.1359429955482483,
            0.05926299840211868,
            -0.012179999612271786
          ],
          [
            0.14426200091838837,
            0.12018000334501266,
            -0.029005000367760658,
            -0.08420000225305557,
            -0.007381000090390444
          ],
          [
            0.2658819854259491,
            0.03131699934601784,
            0.08626099675893784,
            0.12962399423122406,
            0.048138998448848724
          ],
          [
            0.18422000110149384,
            0.16017299890518188,
            0.07489299774169922,
            -0.02267800085246563,
            -0.055907998234033585
          ]
        ],
        [
          [
            0.03657300025224686,
            -0.11403299868106842,
            -0.04526900127530098,
            0.04984699934720993,
            0.118258997797966
          ],
          [
            -0.02107599936425686,
            -0.08491100370883942,
            0.06205499917268753,
            0.11083900183439255,
            0.007009000051766634
          ],
          [
            -0.038954999297857285,
            -0.07108999788761139,
            0.11433299630880356,
            -0.20681199431419373,
            -0.07956399768590927
          ],
          [
            -0.14688700437545776,
            -0.09015999734401703,
            0.06602399796247482,
            -0.21837900578975677,
            -0.006417999975383282
          ],
          [
            -0.023773999884724617,
            -0.008719000034034252,
            0.10661900043487549,
            -0.253277987241745,
            -0.006463999859988689
          ]
        ],
        [
          [
            -0.10484100133180618,
            -0.08670400083065033,
            -0.058177001774311066,
            -0.0616610012948513,
            0.01718599908053875
          ],
          [
            -0.1553959995508194,
            -0.09049200266599655,
            0.08239500224590302,
            0.0357309989631176,
            -0.14948700368404388
          ],
          [
            -0.12641100585460663,
            -0.06760899722576141,
            0.21282200515270233,
            0.022173000499606133,
            -0.1511469930410385
          ],
          [
            -0.15570500493049622,
            -0.19878600537776947,
            0.1515759974718094,
            0.08630199730396271,
            -0.026802999898791313
          ],
          [
            -0.16035400331020355,
            -0.15950700640678406,
            0.004009000025689602,
            -0.0842519998550415,
            -0.1488810032606125
          ]
        ]
      ],
      [
        [
          [
            -0.030321000143885612,
            -0.2117599993944168,
            -0.18350200355052948,
            -0.09592500329017639,
            0.08712799847126007
          ],
          [
            -0.054055001586675644,
            -0.2267400026321411,
            -0.12988600134849548,
            -0.2540090084075928,
            -0.2007409930229187
          ],
          [
            0.07517000287771225,
            -0.003137999912723899,
            0.09426800161600113,
            -0.1816750019788742,
            -0.26783299446105957
          ],
          [
            0.07080499827861786,
            0.15178899466991425,
            -0.0010900000343099236,
            -0.24720600247383118,
            -0.24448800086975098
          ],
          [
            -0.026660999283194542,
            0.036215998232364655,
            -0.1311890035867691,
            -0.3080059885978699,
            -0.021963000297546387
          ]
        ],
        [
          [
            0.043163001537323,
            0.07089100033044815,
            0.02090499922633171,
            0.052379000931978226,
            -0.09643799811601639
          ],
          [
            -0.0629969984292984,
            -0.0223229993134737,
            -0.09653200209140778,
            -0.08161900192499161,
            -0.006525999866425991
          ],
          [
            -0.07294700294733047,
            -0.063400998711586,
            -0.149509996175766,
            -0.014422000385820866,
            0.12398099899291992
          ],
          [
            -0.10979799926280975,
            -0.16484999656677246,
            -0.20161999762058258,
            0.05739400163292885,
            0.08377300202846527
          ],
          [
            0.020044000819325447,
            -0.10328400135040283,
            0.06480800360441208,
            0.09111300110816956,
            -0.08067400008440018
          ]
        ],
        [
          [
            0.034453000873327255,
            0.049943000078201294,
            0.02553199976682663,
            0.023692000657320023,
            0.0832120031118393
          ],
          [
            0.012594000436365604,
            -0.005117000080645084,
            -0.11741899698972702,
            -0.05668500065803528,
            0.15820999443531036
          ],
          [
            -0.11531899869441986,
            -0.11909600347280502,
            -0.07294200360774994,
            -0.025611000135540962,
            0.12077300250530243
          ],
          [
            -0.05484800040721893,
            0.002067999914288521,
            -0.05166799947619438,
            -0.04293899983167648,
            0.0884459987282753
          ],
          [
            -0.007666999939829111,
            0.05272100120782852,
            -0.03951999917626381,
            -0.08380100131034851,
            -0.02173900045454502
          ]
        ],
        [
          [
            0.025645999237895012,
            0.058538999408483505,
            -0.022180000320076942,
            0.09183699637651443,
            0.0731310024857521
          ],
          [
            -0.017748000100255013,
            -0.21773700416088104,
            -0.25294798612594604,
            -0.2175469994544983,
            0.04403600096702576
          ],
          [
            -0.11410000175237656,
            -0.22311100363731384,
            -0.24456700682640076,
            -0.1949869990348816,
            -0.05671200156211853
          ],
          [
            -0.046459998935461044,
            -0.004699000157415867,
            0.012373999692499638,
            -0.17100800573825836,
            -0.01999799907207489
          ],
          [
            0.074242003262043,
            -0.014724000357091427,
            -0.07682099938392639,
            -0.1618259996175766,
            0.05037900060415268
          ]
        ],
        [
          [
            -0.0791189968585968,
            0.036357998847961426,
            0.010824000462889671,
            0.15363000333309174,
            0.11026500165462494
          ],
          [
            0.03127099946141243,
            -0.07350800186395645,
            -0.2271610051393509,
            -0.013628999702632427,
            0.018503999337553978
          ],
          [
            -0.01961899921298027,
            -0.20084799826145172,
            -0.16401700675487518,
            -0.06400500237941742,
            -0.17211000621318817
          ],
          [
            -0.00405400013551116,
            -0.011748000048100948,
            0.09625499695539474,
            0.1163560003042221,
            -0.20784899592399597
          ],
          [
            -0.02918899990618229,
            0.015224999748170376,
            0.09877000004053116,
            -0.10883700102567673,
            -0.14059199392795563
          ]
        ],
        [
          [
            0.010784000158309937,
            0.21238300204277039,
            0.1621749997138977,
            0.029128000140190125,
            -0.06867700070142746
          ],
          [
            0.11636599898338318,
            0.18142999708652496,
            -0.08650299906730652,
            0.10864999890327454,
            0.005969999823719263
          ],
          [
            -0.09155900031328201,
            -0.15275299549102783,
            -0.06029200181365013,
            0.18716999888420105,
            -0.023833999410271645
          ],
          [
            -0.03437399864196777,
            -0.013306000269949436,
            0.1924940049648285,
            0.14451999962329865,
            -0.1705469936132431
          ],
          [
            -0.10183800011873245,
            -0.039709001779556274,
            0.06768400222063065,
            -0.128043994307518,
            -0.24474599957466125
          ]
        ]
      ],
      [
        [
          [
            -0.016641000285744667,
            -0.023801999166607857,
            -0.11998599767684937,
            -0.06666400283575058,
            0.032005999237298965
          ],
          [
            0.01627100072801113,
            -0.15135499835014343,
            -0.3084059953689575,
            -0.2731040120124817,
            -0.2067990005016327
          ],
          [
            0.021124999970197678,
            -0.016321999952197075,
            -0.08362200111150742,
            -0.1719529926776886,
            0.08942899852991104
          ],
          [
            -0.062245000153779984,
            0.024637000635266304,
            0.01108499988913536,
            0.01547900028526783,
            -0.054666001349687576
          ],
          [
            0.11567399650812149,
            0.08738300204277039,
            0.07158800214529037,
            0.05861100181937218,
            0.02452000044286251
          ]
        ],
        [
          [
            -0.10024400055408478,
            -0.015407999977469444,
            -0.022359000518918037,
            -0.06516499817371368,
            -0.06728199869394302
          ],
          [
            -0.17250899970531464,
            -0.10879799723625183,
            -0.004364000167697668,
            -0.10342500358819962,
            -0.06684699654579163
          ],
          [
            -0.01629599928855896,
            0.007009999826550484,
            0.043118998408317566,
            0.09322600066661835,
            -0.017714999616146088
          ],
          [
            0.026434000581502914,
            -0.02665100060403347,
            0.1091189980506897,
            -0.012125000357627869,
            -0.06160999834537506
          ],
          [
            0.03331499919295311,
            0.062261998653411865,
            0.10336200147867203,
            0.056164998561143875,
            -0.10605300217866898
          ]
        ],
        [
          [
            0.033132001757621765,
            0.1224140003323555,
            0.1684810072183609,
            0.1309179961681366,
            -0.012494999915361404
          ],
          [
            0.013199999928474426,
            -0.004668000154197216,
            -0.07673899829387665,
            -0.18161100149154663,
            -0.032958999276161194
          ],
          [
            -0.0238489992916584,
            -0.08475500345230103,
            -0.22682400047779083,
            -0.14266499876976013,
            0.044741999357938766
          ],
          [
            0.0886709988117218,
            -0.11119800060987473,
            -0.06293600052595139,
            -0.1137709990143776,
            0.09802699834108353
          ],
          [
            0.0037539999466389418,
            0.05569399893283844,
            0.052087001502513885,
            0.069582000374794,
            0.17900599539279938
          ]
        ],
        [
          [
            -0.004428999964147806,
            0.11652299761772156,
            0.031706999987363815,
            0.08650100231170654,
            0.047575999051332474
          ],
          [
            -0.008655999787151814,
            0.03364799916744232,
            -0.1363839954137802,
            -0.19772300124168396,
            -0.1623779982328415
          ],
          [
            0.09417600184679031,
            -0.03919300064444542,
            -0.04879099875688553,
            -0.10614500194787979,
            -0.05679899826645851
          ],
          [
            0.18597300350666046,
            0.17072999477386475,
            0.10088399797677994,
            -0.008422999642789364,
            0.14298300445079803
          ],
          [
            0.2474769949913025,
            0.2230830043554306,
            0.1457339972257614,
            0.16901099681854248,
            0.10048399865627289
          ]
        ],
        [
          [
            -0.030628999695181847,
            -0.007555000018328428,
            0.07481999695301056,
            0.12949199974536896,
            0.11481700092554092
          ],
          [
            0.0799579992890358,
            0.004484000150114298,
            -0.09345699846744537,
            -0.072673000395298,
            -0.049483999609947205
          ],
          [
            0.0824270024895668,
            -0.021575000137090683,
            -0.15434099733829498,
            -0.2542549967765808,
            -0.211667999625206
          ],
          [
            0.11190000176429749,
            -0.04408400133252144,
            -0.12727800011634827,
            -0.10306300222873688,
            0.0531889982521534
          ],
          [
            -0.02917500026524067,
            -0.07494600117206573,
            -0.01235199999064207,
            0.09444999694824219,
            0.08443000167608261
          ]
        ],
        [
          [
            -0.006366000045090914,
            0.09454099833965302,
            0.12735800445079803,
            0.11010599881410599,
            -0.03634500131011009
          ],
          [
            0.04921000078320503,
            0.103753000497818,
            0.13745500147342682,
            0.014764999970793724,
            -0.1326099932193756
          ],
          [
            0.0919020026922226,
            0.08279500156641006,
            0.07564300298690796,
            -0.21031899750232697,
            -0.24399100244045258
          ],
          [
            -0.013522000052034855,
            0.01964299939572811,
            -0.13651500642299652,
            -0.14689800143241882,
            -0.026830999180674553
          ],
          [
            -0.12788699567317963,
            -0.1507979929447174,
            -0.14287200570106506,
            -0.125901997089386,
            -0.07684499770402908
          ]
        ]
      ],
      [
        [
          [
            -0.05618299916386604,
            0.03279099985957146,
            -0.03550700098276138,
            0.08258599787950516,
            0.015457999892532825
          ],
          [
            -0.04263399913907051,
            -0.09593500196933746,
            -0.24266700446605682,
            -0.06716000288724899,
            0.11267299950122833
          ],
          [
            -0.027442000806331635,
            -0.21047699451446533,
            -0.444335013628006,
            -0.3334850072860718,
            -0.2557309865951538
          ],
          [
            0.051695000380277634,
            0.19318300485610962,
            0.1318189948797226,
            0.0947830006480217,
            -0.009934999980032444
          ],
          [
            0.049529001116752625,
            0.11195900291204453,
            0.10638000071048737,
            0.047554001212120056,
            0.036938998848199844
          ]
        ],
        [
          [
            -0.03978100046515465,
            -0.11298000067472458,
            -0.19571900367736816,
            -0.2289319932460785,
            -0.13903699815273285
          ],
          [
            -0.002245000097900629,
            -0.12710100412368774,
            -0.03682300075888634,
            0.012954999692738056,
            -0.09152200073003769
          ],
          [
            -0.15874099731445312,
            -0.09624499827623367,
            -0.049566999077796936,
            0.028922999277710915,
            -0.08055700361728668
          ],
          [
            -0.25017300248146057,
            -0.13636599481105804,
            -0.06460600346326828,
            -0.08984699845314026,
            0.03349800035357475
          ],
          [
            -0.21696799993515015,
            -0.056317999958992004,
            -0.048305999487638474,
            -0.07091899961233139,
            0.033636000007390976
          ]
        ],
        [
          [
            0.03517900034785271,
            0.19565999507904053,
            0.22888599336147308,
            0.13553699851036072,
            0.09331099689006805
          ],
          [
            -0.013930000364780426,
            0.14615799486637115,
            -0.009112999774515629,
            0.11854799836874008,
            0.10249300301074982
          ],
          [
            -0.007172999903559685,
            -0.059397000819444656,
            -0.14377300441265106,
            -0.1629440039396286,
            -0.04326700046658516
          ],
          [
            -0.1782049983739853,
            -0.2147980034351349,
            -0.2044229954481125,
            -0.16737200319766998,
            -0.0028250000905245543
          ],
          [
            -0.06421399861574173,
            -0.11770500242710114,
            -0.11879300326108932,
            -0.08582700043916702,
            -0.08296199887990952
          ]
        ],
        [
          [
            -0.03633800148963928,
            -0.03411100059747696,
            0.033695001155138016,
            0.029848000034689903,
            -0.11446399986743927
          ],
          [
            -0.1712229996919632,
            -0.01807600073516369,
            -0.027720000594854355,
            0.012413999997079372,
            0.09924499690532684
          ],
          [
            -0.13450999557971954,
            -0.33553600311279297,
            -0.26291799545288086,
            -0.24949200451374054,
            -0.09145499765872955
          ],
          [
            -0.16111600399017334,
            -0.28586700558662415,
            -0.28527700901031494,
            -0.20975099503993988,
            -0.2783370018005371
          ],
          [
            0.017573999240994453,
            0.07718999683856964,
            0.08539699763059616,
            -0.1272139996290207,
            -0.2633639872074127
          ]
        ],
        [
          [
            0.04095200076699257,
            -0.09097500145435333,
            -0.08805599808692932,
            -0.006436999887228012,
            -0.06991200149059296
          ],
          [
            -0.1629289984703064,
            0.023883000016212463,
            0.16815799474716187,
            0.24437999725341797,
            0.10670900344848633
          ],
          [
            -0.1621289998292923,
            -0.08828599750995636,
            -0.2148369997739792,
            -0.23208700120449066,
            -0.01804099977016449
          ],
          [
            -0.020873000845313072,
            -0.1714780032634735,
            -0.17487099766731262,
            -0.24031800031661987,
            -0.10423000156879425
          ],
          [
            0.04587800055742264,
            0.13717399537563324,
            0.1343570053577423,
            0.1600790023803711,
            0.024606000632047653
          ]
        ],
        [
          [
            -0.08740399777889252,
            -0.15297900140285492,
            -0.1554960012435913,
            -0.08039899915456772,
            -0.10468800365924835
          ],
          [
            0.010626999661326408,
            0.0024019998963922262,
            0.2115820050239563,
            0.07486499845981598,
            -0.007952000014483929
          ],
          [
            -0.06726499646902084,
            0.15479600429534912,
            0.06358300149440765,
            -0.004556000232696533,
            0.1774120032787323
          ],
          [
            -0.10271699726581573,
            -0.09954900294542313,
            -0.22921499609947205,
            -0.14088399708271027,
            0.012486999854445457
          ],
          [
            0.04301400110125542,
            0.00545499986037612,
            0.08525899797677994,
            0.10405799746513367,
            0.10649500042200089
          ]
        ]
      ],
      [
        [
          [
            -0.10107500106096268,
            0.17320500314235687,
            0.2315170019865036,
            -0.00723200011998415,
            -0.1450369954109192
          ],
          [
            -0.13369899988174438,
            0.08717700093984604,
            0.17589999735355377,
            0.16058999300003052,
            -0.054875001311302185
          ],
          [
            0.11435600370168686,
            0.24450799822807312,
            0.13033300638198853,
            0.13340799510478973,
            -0.10675899684429169
          ],
          [
            0.10990600287914276,
            -0.13882000744342804,
            -0.2158460021018982,
            -0.029944999143481255,
            0.07051300257444382
          ],
          [
            -0.09287799894809723,
            -0.07830599695444107,
            0.1408880054950714,
            0.2051749974489212,
            0.10528600215911865
          ]
        ],
        [
          [
            -0.03545600175857544,
            -0.13817299902439117,
            -0.11893600225448608,
            -0.05582800135016441,
            -0.05538399890065193
          ],
          [
            0.032933998852968216,
            -0.24854299426078796,
            -0.2021699994802475,
            -0.1721460074186325,
            0.0006910000229254365
          ],
          [
            -0.129380002617836,
            -0.18838800489902496,
            -0.1123099997639656,
            -0.05581599846482277,
            0.10363899916410446
          ],
          [
            0.025073999539017677,
            0.13425399363040924,
            0.037911999970674515,
            0.12495200335979462,
            0.23581700026988983
          ],
          [
            0.021779999136924744,
            0.16402499377727509,
            0.1987130045890808,
            0.18791300058364868,
            0.25776898860931396
          ]
        ],
        [
          [
            -0.024392999708652496,
            0.15227200090885162,
            0.05028200149536133,
            -0.04483199864625931,
            0.010316000320017338
          ],
          [
            -0.09942399710416794,
            0.08797699958086014,
            -0.015062999911606312,
            -0.17423300445079803,
            -0.09351299703121185
          ],
          [
            -0.1958329975605011,
            -0.04961699992418289,
            -0.10318800061941147,
            -0.198170006275177,
            -0.15157200396060944
          ],
          [
            -0.043866001069545746,
            0.09021300077438354,
            -0.06015700101852417,
            -0.09014199674129486,
            -0.0738610029220581
          ],
          [
            0.005665999837219715,
            0.007422999944537878,
            0.0065910001285374165,
            0.006519999820739031,
            0.04266500100493431
          ]
        ],
        [
          [
            0.013674000278115273,
            0.13898299634456635,
            0.03825800120830536,
            -0.1954209953546524,
            -0.16046999394893646
          ],
          [
            -0.07111500203609467,
            0.0759970024228096,
            -0.015034000389277935,
            -0.25694599747657776,
            -0.18360699713230133
          ],
          [
            -0.19927600026130676,
            0.0893929973244667,
            0.029145000502467155,
            -0.21189500391483307,
            -0.169856995344162
          ],
          [
            0.10060899704694748,
            0.19582900404930115,
            0.09470000118017197,
            0.013999000191688538,
            0.004310999996960163
          ],
          [
            0.0012150000547990203,
            -0.009378000162541866,
            -0.04156399890780449,
            0.05254499986767769,
            0.09845499694347382
          ]
        ],
        [
          [
            0.09035100042819977,
            0.0033319999929517508,
            -0.042819999158382416,
            -0.08108899742364883,
            -0.0800509974360466
          ],
          [
            -0.18234199285507202,
            0.07674799859523773,
            0.09440299868583679,
            -0.08674799650907516,
            -0.06445100158452988
          ],
          [
            -0.17702500522136688,
            0.15160399675369263,
            0.19919799268245697,
            0.0386510007083416,
            -0.038777001202106476
          ],
          [
            0.08103299885988235,
            0.1805659979581833,
            0.027292000129818916,
            -0.0757799968123436,
            -0.06050899997353554
          ],
          [
            -0.06658399850130081,
            -0.12752200663089752,
            -0.2127700001001358,
            -0.13779200613498688,
            0.021547000855207443
          ]
        ],
        [
          [
            -0.059470999985933304,
            -0.246288001537323,
            0.014694999903440475,
            0.04605799913406372,
            -0.02768000029027462
          ],
          [
            -0.20649200677871704,
            -0.10259599983692169,
            0.005696000065654516,
            -0.005049999803304672,
            0.0402970016002655
          ],
          [
            -0.14468100666999817,
            0.036302998661994934,
            0.07655400037765503,
            0.1290930062532425,
            0.019910000264644623
          ],
          [
            0.030556000769138336,
            0.1964460015296936,
            0.11844799667596817,
            -0.02502400055527687,
            0.03995300084352493
          ],
          [
            -0.09474299848079681,
            -0.14104600250720978,
            -0.07618299871683121,
            0.017942000180482864,
            0.10867200046777725
          ]
        ]
      ],
      [
        [
          [
            0.06591899693012238,
            0.049345001578330994,
            0.030626000836491585,
            0.033358000218868256,
            -0.019876999780535698
          ],
          [
            0.05349700152873993,
            -0.02315800078213215,
            -0.05847800150513649,
            0.07293599843978882,
            0.18265900015830994
          ],
          [
            0.010731000453233719,
            0.03460099920630455,
            0.0033199999015778303,
            0.04672899842262268,
            0.10308600217103958
          ],
          [
            0.04978000000119209,
            0.07961300015449524,
            0.020764000713825226,
            -0.05195999890565872,
            -0.025750000029802322
          ],
          [
            -0.14968499541282654,
            -0.1497810035943985,
            -0.14617200195789337,
            -0.07516500353813171,
            -0.17256100475788116
          ]
        ],
        [
          [
            -0.07492700219154358,
            -0.04177600145339966,
            -0.09240099787712097,
            -0.12487699836492538,
            -0.1047699972987175
          ],
          [
            -0.07094399631023407,
            -0.11065799742937088,
            -0.27067598700523376,
            -0.22030200064182281,
            -0.1815200001001358
          ],
          [
            -0.07732299715280533,
            -0.22106300294399261,
            -0.3547559976577759,
            -0.2690240144729614,
            -0.18498000502586365
          ],
          [
            -0.15487900376319885,
            -0.3038100004196167,
            -0.2512440085411072,
            -0.09785500168800354,
            -0.1690019965171814
          ],
          [
            -0.028661999851465225,
            -0.11742100119590759,
            -0.0019209999591112137,
            0.06254400312900543,
            0.17158100008964539
          ]
        ],
        [
          [
            0.021004000678658485,
            0.03767399862408638,
            -0.04919600114226341,
            -0.05113799870014191,
            -0.07586999982595444
          ],
          [
            -0.04991300031542778,
            0.03541700169444084,
            0.007079000119119883,
            0.029246000573039055,
            -0.05778700113296509
          ],
          [
            -0.010073999874293804,
            -0.08757899701595306,
            0.023667000234127045,
            -0.03188500180840492,
            0.01773099973797798
          ],
          [
            -0.09557899832725525,
            -0.06990200281143188,
            -0.10605599731206894,
            -0.02216400019824505,
            0.051959000527858734
          ],
          [
            -0.06451699882745743,
            -0.05950099974870682,
            0.026820000261068344,
            0.05004800111055374,
            0.04736100137233734
          ]
        ],
        [
          [
            -0.0562870018184185,
            -0.025807999074459076,
            -0.05648399889469147,
            -0.13822300732135773,
            -0.09664899855852127
          ],
          [
            -0.07480999827384949,
            -0.08828900009393692,
            -0.09606999903917313,
            -0.12670500576496124,
            -0.20167399942874908
          ],
          [
            -0.2596060037612915,
            -0.22366200387477875,
            -0.16545400023460388,
            -0.2768779993057251,
            -0.2693060040473938
          ],
          [
            -0.14947600662708282,
            -0.14232000708580017,
            -0.1755259931087494,
            -0.1393660008907318,
            -0.13331100344657898
          ],
          [
            -0.1022299975156784,
            -0.15357699990272522,
            -0.16637499630451202,
            -0.1669439971446991,
            -0.08671600371599197
          ]
        ],
        [
          [
            0.010316000320017338,
            0.05543699860572815,
            0.03706499934196472,
            -0.05161900073289871,
            -0.11123800277709961
          ],
          [
            0.1369509994983673,
            0.18227200210094452,
            0.08944100141525269,
            0.042082998901605606,
            0.019509999081492424
          ],
          [
            -0.04340599849820137,
            0.023945000022649765,
            0.05648399889469147,
            0.09189900010824203,
            -0.01496300008147955
          ],
          [
            -0.008464000187814236,
            0.12111300230026245,
            0.08688700199127197,
            0.05076399818062782,
            0.07469599694013596
          ],
          [
            0.13463400304317474,
            0.11749199777841568,
            -0.010910999961197376,
            0.005338000133633614,
            0.06354600191116333
          ]
        ],
        [
          [
            0.008125999942421913,
            0.00023299999884329736,
            -0.006047999951988459,
            -0.11617500334978104,
            0.04505100101232529
          ],
          [
            0.07500199973583221,
            0.026923999190330505,
            -0.013511000201106071,
            -0.05476300045847893,
            -0.06132299825549126
          ],
          [
            -0.015859000384807587,
            0.012078999541699886,
            -0.03222599998116493,
            -0.05119499936699867,
            -0.1494700014591217
          ],
          [
            -0.04261999949812889,
            0.04738499969244003,
            0.07197800278663635,
            0.06604599952697754,
            -0.039427999407052994
          ],
          [
            0.20745199918746948,
            0.12823599576950073,
            0.08526899665594101,
            0.2153249979019165,
            0.22476999461650848
          ]
        ]
      ],
      [
        [
          [
            0.01449500024318695,
            0.05548899993300438,
            -0.03259100019931793,
            -0.03006099909543991,
            -0.06846500188112259
          ],
          [
            -0.0630130022764206,
            -0.1457650065422058,
            -0.20291399955749512,
            -0.21388700604438782,
            -0.05996900051832199
          ],
          [
            0.008163999766111374,
            -0.08235800266265869,
            -0.020539000630378723,
            0.0855259969830513,
            0.12433599680662155
          ],
          [
            0.12366800010204315,
            0.19016599655151367,
            0.16970400512218475,
            -0.04468600079417229,
            -0.11623799800872803
          ],
          [
            0.0940139964222908,
            0.06658100336790085,
            -0.024020999670028687,
            -0.08838099986314774,
            0.018357999622821808
          ]
        ],
        [
          [
            0.0953029990196228,
            0.10886300355195999,
            0.11571899801492691,
            0.023732999339699745,
            0.10035599768161774
          ],
          [
            0.05593499913811684,
            0.12994299829006195,
            0.16460900008678436,
            0.12447299808263779,
            0.06022400036454201
          ],
          [
            -0.022231999784708023,
            0.12228900194168091,
            0.13139699399471283,
            0.1004050001502037,
            0.016460999846458435
          ],
          [
            0.03536900132894516,
            -0.015169999562203884,
            -0.09734000265598297,
            -0.05254799872636795,
            0.04646100103855133
          ],
          [
            -0.09775999933481216,
            -0.13524900376796722,
            -0.1260170042514801,
            -0.03637799993157387,
            0.0723159983754158
          ]
        ],
        [
          [
            -0.007891999557614326,
            0.08840999752283096,
            0.10589700192213058,
            -0.007474999874830246,
            -0.05387499928474426
          ],
          [
            0.017170999199151993,
            0.007263000123202801,
            -0.02515299990773201,
            -0.10970000177621841,
            0.026409000158309937
          ],
          [
            -0.12538500130176544,
            -0.14215999841690063,
            -0.10490600019693375,
            -0.0484669990837574,
            -0.023360999301075935
          ],
          [
            -0.06736499816179276,
            -0.02820800058543682,
            0.04858500137925148,
            0.008031999692320824,
            0.02448900043964386
          ],
          [
            0.09603399783372879,
            0.16920599341392517,
            0.06461499631404877,
            -0.060203999280929565,
            -0.03217799961566925
          ]
        ],
        [
          [
            0.15342099964618683,
            0.14444600045681,
            0.16517099738121033,
            0.010286999866366386,
            -0.11913999915122986
          ],
          [
            0.04880800098180771,
            0.0809440016746521,
            -0.003493000054731965,
            -0.22033099830150604,
            -0.17956799268722534
          ],
          [
            0.008236999623477459,
            -0.12878799438476562,
            -0.19791600108146667,
            -0.07793000340461731,
            0.021622000262141228
          ],
          [
            -0.04504600167274475,
            0.0002789999998640269,
            0.0451430007815361,
            0.05246900022029877,
            -0.03220200166106224
          ],
          [
            0.1604979932308197,
            0.14004099369049072,
            0.11098799854516983,
            -0.007021999917924404,
            -0.091000996530056
          ]
        ],
        [
          [
            -0.006626000162214041,
            -0.030378999188542366,
            -0.045834001153707504,
            0.02460700087249279,
            -0.034807998687028885
          ],
          [
            0.026657000184059143,
            -0.03655099868774414,
            -0.06855800002813339,
            -0.30133500695228577,
            -0.42498600482940674
          ],
          [
            -0.07933499664068222,
            -0.2805370092391968,
            -0.4555549919605255,
            -0.29872599244117737,
            -0.03618000075221062
          ],
          [
            -0.1668500006198883,
            -0.20632700622081757,
            -0.024667000398039818,
            0.08245799690485,
            0.048643000423908234
          ],
          [
            -0.09522700309753418,
            0.044050998985767365,
            0.15633200109004974,
            -0.008697000332176685,
            -0.06474299728870392
          ]
        ],
        [
          [
            0.005297999829053879,
            0.04528599977493286,
            0.07361099869012833,
            0.13198000192642212,
            0.04862799867987633
          ],
          [
            0.09421300143003464,
            0.1141820028424263,
            0.17132599651813507,
            0.025498000904917717,
            -0.22707599401474
          ],
          [
            -0.07101699709892273,
            -0.18930700421333313,
            -0.21846699714660645,
            -0.2105879932641983,
            -0.017461000010371208
          ],
          [
            -0.24209000170230865,
            -0.27304598689079285,
            -0.010462000034749508,
            0.06555899977684021,
            0.11868800222873688
          ],
          [
            -0.09299500286579132,
            -0.04346499964594841,
            0.020176000893115997,
            -0.05892200022935867,
            -0.12375400215387344
          ]
        ]
      ],
      [
        [
          [
            -0.16615800559520721,
            -0.08391900360584259,
            -0.05744599923491478,
            0.032607000321149826,
            -0.022544000297784805
          ],
          [
            -0.06661099940538406,
            -0.14517900347709656,
            0.08129599690437317,
            0.2557930052280426,
            0.10163900256156921
          ],
          [
            -0.10837899893522263,
            -0.12538699805736542,
            0.20556500554084778,
            0.2773140072822571,
            -0.16574199497699738
          ],
          [
            -0.10184399783611298,
            -0.08197999745607376,
            0.07659099996089935,
            -0.0028570001013576984,
            -0.06800399720668793
          ],
          [
            -0.13907599449157715,
            -0.17003600299358368,
            0.01888200081884861,
            0.036194998770952225,
            -0.001044000033289194
          ]
        ],
        [
          [
            0.090317003428936,
            0.04024200141429901,
            0.09549800306558609,
            0.15848800539970398,
            0.17293399572372437
          ],
          [
            0.10015899688005447,
            0.055952999740839005,
            0.07286600023508072,
            -0.0975010022521019,
            -0.06803199648857117
          ],
          [
            -0.029391000047326088,
            -0.005119000095874071,
            -0.09888099879026413,
            -0.14091800153255463,
            -0.25798499584198
          ],
          [
            -0.00046300000394694507,
            0.010228999890387058,
            -0.06117499992251396,
            -0.13609099388122559,
            -0.038683999329805374
          ],
          [
            0.15558399260044098,
            0.03461199998855591,
            -0.01917799934744835,
            -0.10727600008249283,
            -0.12534500658512115
          ]
        ],
        [
          [
            -0.0678199976682663,
            -0.03528499975800514,
            -0.04591900110244751,
            -0.09530699998140335,
            -0.07111900299787521
          ],
          [
            -0.10390199720859528,
            -0.16020700335502625,
            -0.0183470007032156,
            0.11803600192070007,
            0.1143219992518425
          ],
          [
            -0.140297994017601,
            0.011877000331878662,
            0.11958000063896179,
            0.14264699816703796,
            0.10999300330877304
          ],
          [
            0.032690998166799545,
            0.19692300260066986,
            0.1463170051574707,
            0.08862800151109695,
            -0.14295899868011475
          ],
          [
            0.07138799875974655,
            0.16317200660705566,
            -0.010137000121176243,
            -0.11208000034093857,
            -0.10662800073623657
          ]
        ],
        [
          [
            -0.14791500568389893,
            -0.121908999979496,
            -0.013505999930202961,
            -0.13539999723434448,
            -0.03742700070142746
          ],
          [
            -0.2161320000886917,
            -0.19165299832820892,
            -0.06144699826836586,
            0.034731000661849976,
            0.18361100554466248
          ],
          [
            -0.19494999945163727,
            0.031984999775886536,
            0.11662299931049347,
            0.07214099913835526,
            -0.07958800345659256
          ],
          [
            -0.051311999559402466,
            0.1325709968805313,
            0.005410999990999699,
            -0.08638399839401245,
            -0.24407599866390228
          ],
          [
            0.07514499872922897,
            0.10974399745464325,
            0.043584998697042465,
            -0.21901799738407135,
            -0.3390119969844818
          ]
        ],
        [
          [
            -0.051881998777389526,
            0.012827999889850616,
            0.038054998964071274,
            -0.08856499940156937,
            -0.1683720052242279
          ],
          [
            0.07120300084352493,
            -0.03322000056505203,
            -0.23912499845027924,
            -0.04142500087618828,
            0.147489994764328
          ],
          [
            0.15555700659751892,
            -0.09031599760055542,
            -0.14316299557685852,
            0.14881399273872375,
            0.19949300587177277
          ],
          [
            0.029032999649643898,
            0.012985999695956707,
            0.04553300142288208,
            0.11986400187015533,
            -0.11070699989795685
          ],
          [
            -0.00443299999460578,
            0.07673099637031555,
            0.08015699684619904,
            -0.0963440015912056,
            -0.20704899728298187
          ]
        ],
        [
          [
            0.10720500349998474,
            0.08282399922609329,
            0.020298000425100327,
            -0.06652700155973434,
            -0.1288679987192154
          ],
          [
            0.1399500072002411,
            -0.09202899783849716,
            -0.16388900578022003,
            -0.09588400274515152,
            0.1175680011510849
          ],
          [
            0.07429499924182892,
            -0.12510600686073303,
            -0.17147499322891235,
            0.15165700018405914,
            0.1889369934797287
          ],
          [
            0.10358799993991852,
            -0.04623100161552429,
            0.049330998212099075,
            0.11589399725198746,
            0.059790998697280884
          ],
          [
            0.194240003824234,
            0.06390099972486496,
            -0.013043999671936035,
            0.0061039999127388,
            0.010699000209569931
          ]
        ]
      ],
      [
        [
          [
            -0.05239899829030037,
            0.11627499759197235,
            0.031401000916957855,
            0.0011220000451430678,
            -0.1192839965224266
          ],
          [
            -0.00929300021380186,
            0.12267299741506577,
            0.1906210035085678,
            0.04297100007534027,
            -0.11548099666833878
          ],
          [
            0.14737999439239502,
            0.3048830032348633,
            0.12800300121307373,
            -0.0723470002412796,
            -0.07491499930620193
          ],
          [
            0.0006409999914467335,
            -0.04252000153064728,
            -0.17798900604248047,
            0.008182000368833542,
            0.12758100032806396
          ],
          [
            -0.05142199993133545,
            -0.0013180000241845846,
            0.10541299730539322,
            0.1258459985256195,
            0.07940699905157089
          ]
        ],
        [
          [
            0.006626000162214041,
            -0.02341499924659729,
            0.11354900151491165,
            0.07037799805402756,
            0.03728900104761124
          ],
          [
            0.12755300104618073,
            0.10286799818277359,
            -0.04340999945998192,
            -0.1250009983778,
            -0.15899400413036346
          ],
          [
            0.1961349993944168,
            0.13759499788284302,
            -0.07920599728822708,
            -0.18681399524211884,
            -0.20662100613117218
          ],
          [
            0.15641599893569946,
            0.09795799851417542,
            0.060965001583099365,
            -0.1292320042848587,
            -0.18970000743865967
          ],
          [
            0.11516699939966202,
            0.1754000037908554,
            0.09646599739789963,
            -0.1090179979801178,
            -0.0838640034198761
          ]
        ],
        [
          [
            -0.038506001234054565,
            -0.02931099943816662,
            -0.03880799934267998,
            -0.029455000534653664,
            -0.019578000530600548
          ],
          [
            -0.08269400149583817,
            -0.027463000267744064,
            0.011203999631106853,
            -0.0006830000202171504,
            -0.01593800075352192
          ],
          [
            -0.04749299958348274,
            0.12283000349998474,
            0.06779199838638306,
            -0.09157899767160416,
            -0.13524000346660614
          ],
          [
            0.1377989947795868,
            0.04253299906849861,
            -0.037119001150131226,
            -0.028179999440908432,
            -0.025191999971866608
          ],
          [
            -0.10643000155687332,
            -0.14417800307273865,
            -0.02243800088763237,
            0.11536599695682526,
            -0.017184000462293625
          ]
        ],
        [
          [
            -0.051667001098394394,
            0.11575300246477127,
            -0.022444000467658043,
            -0.1266379952430725,
            -0.009387999773025513
          ],
          [
            -0.06684599816799164,
            0.11098799854516983,
            0.08025000244379044,
            0.03544300049543381,
            -0.062231000512838364
          ],
          [
            0.12576299905776978,
            0.29286399483680725,
            0.23080800473690033,
            -0.007608999963849783,
            -0.14516200125217438
          ],
          [
            0.417587012052536,
            0.3072499930858612,
            0.07394900172948837,
            0.025665000081062317,
            -0.030544999986886978
          ],
          [
            -0.027814999222755432,
            -0.10208900272846222,
            0.008356000296771526,
            0.02831999957561493,
            -0.030570000410079956
          ]
        ],
        [
          [
            0.1063150018453598,
            0.18366500735282898,
            0.00853700004518032,
            -0.16689999401569366,
            -0.06750299781560898
          ],
          [
            -8.600000001024455e-05,
            0.05734099820256233,
            0.1478859931230545,
            0.13246099650859833,
            -0.055121999233961105
          ],
          [
            -0.009986000135540962,
            0.1245800033211708,
            0.22539399564266205,
            0.07904200255870819,
            -0.08207400143146515
          ],
          [
            0.20808200538158417,
            0.29023200273513794,
            0.031582001596689224,
            -0.10453400015830994,
            -0.09927699714899063
          ],
          [
            0.0193060003221035,
            -0.033670999109745026,
            -0.19719800353050232,
            -0.11292299628257751,
            0.005594000220298767
          ]
        ],
        [
          [
            -0.0033519999124109745,
            0.026112999767065048,
            -0.005545000080019236,
            0.00405499991029501,
            0.05761900171637535
          ],
          [
            0.018556000664830208,
            -0.09799700230360031,
            0.008263999596238136,
            0.04835100099444389,
            0.1590310037136078
          ],
          [
