{
  "parameters": {
    "feature_extractor.0.weight": [
      [
        [
          [
            0.11663699895143509,
            0.07078000158071518,
            0.17937199771404266,
            0.14347000420093536,
            0.1024319976568222
          ],
          [
            0.27277299761772156,
            0.06925699859857559,
            0.11860399693250656,
            -0.09688500314950943,
            0.18113499879837036
          ],
          [
            0.2904059886932373,
            -0.17641499638557434,
            -0.2557559907436371,
            0.03916899859905243,
            0.12446899712085724
          ],
          [
            0.008425000123679638,
            -0.44998499751091003,
            -0.22741100192070007,
            -0.3881779909133911,
            -0.028958000242710114
          ],
          [
            0.09386599808931351,
            -0.061191000044345856,
            -0.06732100248336792,
            -0.24299100041389465,
            0.07317499816417694
          ]
        ]
      ],
      [
        [
          [
            -0.2678300142288208,
            -0.12286599725484848,
            -0.01932699978351593,
            0.12728899717330933,
            0.13814599812030792
          ],
          [
            0.048253998160362244,
            0.12190300226211548,
            0.38703399896621704,
            0.2995220124721527,
            0.06411100178956985
          ],
          [
            -0.013584000058472157,
            -0.009689999744296074,
            0.3679429888725281,
            0.27133700251579285,
            0.11518999934196472
          ],
          [
            -0.18608799576759338,
            -0.11376599967479706,
            0.18436899781227112,
            -0.011378999799489975,
            -0.19629299640655518
          ],
          [
            -0.0018949999939650297,
            -0.23090599477291107,
            -0.32404500246047974,
            -0.042723000049591064,
            -0.3411160111427307
          ]
        ]
      ],
      [
        [
          [
            0.27914801239967346,
            0.33910900354385376,
            0.25537699460983276,
            0.12154199928045273,
            0.12432199716567993
          ],
          [
            0.24883000552654266,
            -0.07883699983358383,
            -0.05650399997830391,
            -0.05665599927306175,
            0.08271700143814087
          ],
          [
            0.024833999574184418,
            -0.31203898787498474,
            -0.2926430106163025,
            -0.13410000503063202,
            -0.26567599177360535
          ],
          [
            -0.282710999250412,
            -0.3101789951324463,
            -0.25031301379203796,
            -0.3196350038051605,
            -0.04206699877977371
          ],
          [
            0.1344889998435974,
            -0.00037200000951997936,
            0.05727899819612503,
            0.2234860062599182,
            0.019373999908566475
          ]
        ]
      ],
      [
        [
          [
            -0.09738600254058838,
            0.26287099719047546,
            0.3235889971256256,
            0.2159149944782257,
            0.12945100665092468
          ],
          [
            0.01323499996215105,
            0.07388400286436081,
            0.25395700335502625,
            0.2853339910507202,
            0.07180599868297577
          ],
          [
            0.11468099802732468,
            0.290039986371994,
            0.07749100029468536,
            0.15327000617980957,
            -0.17246200144290924
          ],
          [
            -0.08543600142002106,
            -0.0688989982008934,
            -0.24994799494743347,
            -0.2850460112094879,
            -0.24421900510787964
          ],
          [
            -0.26513800024986267,
            -0.16547800600528717,
            -0.2682049870491028,
            -0.09371200203895569,
            0.09734500199556351
          ]
        ]
      ],
      [
        [
          [
            -0.1288120001554489,
            0.020743999630212784,
            -0.056605998426675797,
            -0.129380002617836,
            0.004463000223040581
          ],
          [
            0.06284599751234055,
            -0.27776798605918884,
            -0.06115499883890152,
            0.1263750046491623,
            -0.2041970044374466
          ],
          [
            -0.020886000245809555,
            0.09818100184202194,
            -0.13582700490951538,
            -0.1433199942111969,
            -0.006521000061184168
          ],
          [
            0.34681200981140137,
            0.47088301181793213,
            0.3259179890155792,
            0.29857298731803894,
            0.19835799932479858
          ],
          [
            0.06591100245714188,
            0.1269499957561493,
            -0.08377599716186523,
            0.2216469943523407,
            0.29617801308631897
          ]
        ]
      ],
      [
        [
          [
            -0.034977998584508896,
            -0.06538800150156021,
            -0.09317000210285187,
            0.35434699058532715,
            0.2373329997062683
          ],
          [
            -0.08941499888896942,
            0.019101999700069427,
            0.03387700021266937,
            0.21728500723838806,
            0.23973999917507172
          ],
          [
            -0.19087600708007812,
            -0.12852099537849426,
            0.0008200000156648457,
            0.5392339825630188,
            0.07586699724197388
          ],
          [
            0.08845800161361694,
            -0.04026300087571144,
            0.07471399754285812,
            0.3338780105113983,
            -0.11803200095891953
          ],
          [
            -0.18688400089740753,
            0.030796999111771584,
            0.30121299624443054,
            0.32015401124954224,
            0.07053499668836594
          ]
        ]
      ]
    ],
    "feature_extractor.0.bias": [
      -0.00015199999324977398,
      0.13983799517154694,
      -0.19081300497055054,
      -0.06019999831914902,
      0.17718200385570526,
      0.29735198616981506
    ],
    "feature_extractor.3.weight": [
      [
        [
          [
            -0.029695000499486923,
            -0.0016469999682158232,
            0.16151699423789978,
            -0.004062999971210957,
            -0.13986699283123016
          ],
          [
            -0.10288199782371521,
            0.020596999675035477,
            0.2325270026922226,
            -0.029315000399947166,
            0.004005999770015478
          ],
          [
            -0.13074399530887604,
            -0.12450999766588211,
            0.0884850025177002,
            0.11800500005483627,
            0.12018799781799316
          ],
          [
            -0.019680000841617584,
            -0.11009199917316437,
            -0.0013989999424666166,
            -0.05792500078678131,
            -0.19613400101661682
          ],
          [
            -0.13264599442481995,
            -0.1735360026359558,
            -0.0685259997844696,
            -0.1152309998869896,
            -0.0785989984869957
          ]
        ],
        [
          [
            0.10456699877977371,
            0.11333200335502625,
            0.013539000414311886,
            0.13879700005054474,
            0.04633200168609619
          ],
          [
            0.02642899937927723,
            -0.03533000126481056,
            -0.07047700136899948,
            0.24659399688243866,
            0.1451990008354187
          ],
          [
            0.10252700001001358,
            -0.04845200106501579,
            -0.05215400084853172,
            0.036726001650094986,
            -0.09143000096082687
          ],
          [
            0.20533700287342072,
            0.0039059999398887157,
            -0.09675700217485428,
            -0.19896699488162994,
            -0.2537350058555603
          ],
          [
            0.08679100126028061,
            0.02073800005018711,
            -0.02082899957895279,
            -0.03678999841213226,
            -0.01056899968534708
          ]
        ],
        [
          [
            -0.13887199759483337,
            0.04913000017404556,
            0.04187700152397156,
            -0.06564100086688995,
            -0.19557300209999084
          ],
          [
            -0.12682899832725525,
            0.06622300297021866,
            0.1599700003862381,
            -0.12117700278759003,
            -0.16439299285411835
          ],
          [
            -0.1574459969997406,
            -0.08084999769926071,
            0.21644499897956848,
            0.1403450071811676,
            0.15449999272823334
          ],
          [
            -0.035996001213788986,
            0.003432000055909157,
            0.07804600149393082,
            -0.019625000655651093,
            0.0013249999610707164
          ],
          [
            -0.02324499934911728,
            0.017813999205827713,
            -0.012827999889850616,
            0.03159800171852112,
            0.02638399973511696
          ]
        ],
        [
          [
            0.07280100136995316,
            0.1585260033607483,
            0.09574799984693527,
            0.06069999933242798,
            0.14172600209712982
          ],
          [
            0.08223800361156464,
            0.0615059994161129,
            -0.07550700008869171,
            0.10933300107717514,
            0.13011600077152252
          ],
          [
            0.14483200013637543,
            -0.07412800192832947,
            -0.17452099919319153,
            0.028346000239253044,
            0.030748000368475914
          ],
          [
            0.20006200671195984,
            0.05457200109958649,
            -0.2337609976530075,
            -0.18198299407958984,
            -0.23305100202560425
          ],
          [
            0.02457600086927414,
            0.021479999646544456,
            -0.0354899987578392,
            0.001626000041142106,
            0.06124600023031235
          ]
        ],
        [
          [
            0.12245099991559982,
            0.016460999846458435,
            -0.030660999938845634,
            0.051222000271081924,
            0.10076799988746643
          ],
          [
            0.23042500019073486,
            0.007430000230669975,
            -0.09973999857902527,
            -0.13309699296951294,
            -0.12421000003814697
          ],
          [
            0.27504000067710876,
            0.12027700245380402,
            -0.15333299338817596,
            -0.11811999976634979,
            -0.1893790066242218
          ],
          [
            0.06429100036621094,
            0.011640000157058239,
            0.011811000294983387,
            -0.01998700015246868,
            0.04825799912214279
          ],
          [
            0.058834999799728394,
            0.04843199998140335,
            0.082566998898983,
            0.01385399978607893,
            -0.12041299790143967
          ]
        ],
        [
          [
            -0.051364000886678696,
            -0.2747499942779541,
            -0.17202100157737732,
            0.004108000081032515,
            0.05029600113630295
          ],
          [
            -0.09528999775648117,
            -0.11764699965715408,
            -0.11509700119495392,
            0.09558899700641632,
            0.03649299964308739
          ],
          [
            -0.09950599819421768,
            -0.15042400360107422,
            -0.042628999799489975,
            -0.004044999834150076,
            0.0005789999850094318
          ],
          [
            0.06257399916648865,
            -0.008181000128388405,
            -0.016798999160528183,
            0.042660001665353775,
            0.07902099937200546
          ],
          [
            0.1016170009970665,
            0.08256100118160248,
            0.13600799441337585,
            0.07794900238513947,
            0.15110400319099426
          ]
        ]
      ],
      [
        [
          [
            -0.08421999961137772,
            -0.05050799995660782,
            -0.10137999802827835,
            -0.16026799380779266,
            -0.04866600036621094
          ],
          [
            0.05720999836921692,
            0.024070000275969505,
            0.04573199898004532,
            0.05516500025987625,
            -0.02080399915575981
          ],
          [
            0.002145000034943223,
            0.10396099835634232,
            0.03505700081586838,
            -0.01017600018531084,
            0.0022899999748915434
          ],
          [
            0.07105199992656708,
            0.0020840000361204147,
            0.14246399700641632,
            -0.00033099998836405575,
            -0.013472000136971474
          ],
          [
            -0.116737000644207,
            -0.12010399997234344,
            0.042072001844644547,
            -0.003131000092253089,
            -0.059748001396656036
          ]
        ],
        [
          [
            0.13297200202941895,
            -0.02505600079894066,
            0.018755000084638596,
            -0.0364920012652874,
            -0.038679998368024826
          ],
          [
            0.08727200329303741,
            0.05246900022029877,
            -0.014267999678850174,
            -0.09415999799966812,
            -0.03589000180363655
          ],
          [
            -0.009513000026345253,
            -0.15526700019836426,
            -0.18128299713134766,
            -0.11459100246429443,
            -0.09829600155353546
          ],
          [
            0.08905799686908722,
            -0.05857500061392784,
            -0.1231670007109642,
            -0.05894400179386139,
            -0.09240099787712097
          ],
          [
            0.01636200025677681,
            -0.11486499756574631,
            -0.1945350021123886,
            0.004381000064313412,
            0.02147500030696392
          ]
        ],
        [
          [
            -0.044870998710393906,
            -0.08852899819612503,
            -0.1325570046901703,
            -0.13100600242614746,
            -0.03991800174117088
          ],
          [
            -0.0626790001988411,
            -0.04365599900484085,
            0.002581000095233321,
            -0.04317200183868408,
            -0.11527799814939499
          ],
          [
            -0.005803000181913376,
            -0.12228000164031982,
            -0.10429699718952179,
            -0.05115899816155434,
            -0.12530699372291565
          ],
          [
            -0.062293000519275665,
            -0.021028999239206314,
            0.01267900038510561,
            -0.02945300005376339,
            -0.08936099708080292
          ],
          [
            -0.07800199836492538,
            -0.07544799894094467,
            0.0392180010676384,
            0.09113699942827225,
            -0.028953000903129578
          ]
        ],
        [
          [
            0.07549799978733063,
            0.018789000809192657,
            0.06845100224018097,
            0.02611899934709072,
            0.13634200394153595
          ],
          [
            0.015018000267446041,
            0.13678300380706787,
            0.10190299898386002,
            0.08938200026750565,
            0.07900600135326385
          ],
          [
            -0.027919000014662743,
            -0.12495200335979462,
            -0.03320100158452988,
            -0.004654000047594309,
            0.005080000031739473
          ],
          [
            -0.06742999702692032,
            -0.0850600004196167,
            -0.00291300006210804,
            0.013749999925494194,
            0.11170200258493423
          ],
          [
            -0.010257000103592873,
            -0.07963299751281738,
            -0.0583529993891716,
            0.015374000184237957,
            0.19758999347686768
          ]
        ],
        [
          [
            -0.06487999856472015,
            -0.03970399871468544,
            0.11687800288200378,
            0.17909599840641022,
            0.11593499779701233
          ],
          [
            -0.041871000081300735,
            0.060926999896764755,
            0.061507999897003174,
            0.15977700054645538,
            0.1465580016374588
          ],
          [
            0.08394599705934525,
            0.146124005317688,
            0.17797499895095825,
            0.13303400576114655,
            0.14030399918556213
          ],
          [
            0.09601300209760666,
            0.10137200355529785,
            0.08516599982976913,
            0.15473799407482147,
            0.2434079945087433
          ],
          [
            0.12607699632644653,
            0.07891199737787247,
            0.08925999701023102,
            0.08711100369691849,
            0.0016789999790489674
          ]
        ],
        [
          [
            -0.006144000217318535,
            0.06696700304746628,
            0.16034799814224243,
            0.19790400564670563,
            0.20436599850654602
          ],
          [
            -0.03457200154662132,
            0.03631800040602684,
            -0.03112499974668026,
            -0.04677800089120865,
            -0.103923000395298
          ],
          [
            -0.2945219874382019,
            -0.24132700264453888,
            -0.24598300457000732,
            -0.3346019983291626,
            -0.2471179962158203
          ],
          [
            -0.40362799167633057,
            -0.34657999873161316,
            -0.3094579875469208,
            -0.2962090075016022,
            -0.2399750053882599
          ],
          [
            -0.18342599272727966,
            -0.13681399822235107,
            -0.11091399937868118,
            -0.07132399827241898,
            0.08056800067424774
          ]
        ]
      ],
      [
        [
          [
            -0.012997999787330627,
            0.06902000308036804,
            0.007555000018328428,
            0.0859839990735054,
            0.07785800099372864
          ],
          [
            -0.05419899895787239,
            0.04159599915146828,
            0.14247600734233856,
            0.15522600710391998,
            0.06359700113534927
          ],
          [
            -0.03737400099635124,
            -0.1667110025882721,
            0.03754900023341179,
            0.009852999821305275,
            -0.032168999314308167
          ],
          [
            0.05079599842429161,
            -0.008631999604403973,
            0.1764640063047409,
            0.04155199974775314,
            -0.03206799924373627
          ],
          [
            -0.14519399404525757,
            -0.06810200214385986,
            0.0456169992685318,
            -0.02660599909722805,
            -0.14366699755191803
          ]
        ],
        [
          [
            0.13437099754810333,
            0.04297599941492081,
            0.06207700073719025,
            -0.03958100080490112,
            -0.05884699895977974
          ],
          [
            -0.12693099677562714,
            -0.11381600052118301,
            0.04268199950456619,
            -0.08462899923324585,
            -0.06100999936461449
          ],
          [
            0.08858899772167206,
            -0.04339199885725975,
            -0.16728399693965912,
            -0.21220099925994873,
            -0.1251859962940216
          ],
          [
            0.19659799337387085,
            0.10191400349140167,
            -0.07173100113868713,
            -0.151201993227005,
            0.10012999922037125
          ],
          [
            0.10053300112485886,
            0.13844899833202362,
            -0.18961100280284882,
            -0.07479999959468842,
            0.04571299999952316
          ]
        ],
        [
          [
            -0.023559000343084335,
            -0.01872600056231022,
            -0.014546999707818031,
            -0.050071001052856445,
            -0.003961999900639057
          ],
          [
            -0.013779000379145145,
            0.04250999912619591,
            0.09302499890327454,
            0.1352979987859726,
            -0.011265000328421593
          ],
          [
            -0.07450799643993378,
            -0.18751800060272217,
            0.027442000806331635,
            0.07371599972248077,
            -0.027970999479293823
          ],
          [
            0.13227899372577667,
            0.05389200150966644,
            0.1083270013332367,
            -0.04781400039792061,
            -0.06343799829483032
          ],
          [
            -0.04695200175046921,
            0.07891099900007248,
            0.14812299609184265,
            -0.032189998775720596,
            -0.09896399825811386
          ]
        ],
        [
          [
            0.047120001167058945,
            0.05504399910569191,
            0.04686899855732918,
            0.014510000124573708,
            -0.01592100039124489
          ],
          [
            -0.032065000385046005,
            -0.09695400297641754,
            -0.016143999993801117,
            0.05030599981546402,
            -0.03406300023198128
          ],
          [
            0.10164300352334976,
            -0.13450700044631958,
            -0.24987700581550598,
            -0.16327600181102753,
            -0.20524099469184875
          ],
          [
            0.22145600616931915,
            0.1526859998703003,
            -0.07735099643468857,
            -0.2159229964017868,
            -0.029048999771475792
          ],
          [
            0.036642998456954956,
            0.21637800335884094,
            -0.053704001009464264,
            -0.1043429970741272,
            0.022074999287724495
          ]
        ],
        [
          [
            0.1137629970908165,
            -0.08706799894571304,
            0.0063390000723302364,
            0.004693000111728907,
            0.0487309992313385
          ],
          [
            0.29459598660469055,
            0.06652399897575378,
            -0.08499400317668915,
            -0.13999900221824646,
            -0.08850199729204178
          ],
          [
            0.170415997505188,
            0.2379709929227829,
            0.0484439991414547,
            -0.20124000310897827,
            -0.017355000600218773
          ],
          [
            -0.08278600126504898,
            -0.03347000107169151,
            -0.16503900289535522,
            -0.0845009982585907,
            0.0387209989130497
          ],
          [
            -0.10014600306749344,
            -0.12609800696372986,
            -0.08539199829101562,
            0.05309699848294258,
            0.1032629981637001
          ]
        ],
        [
          [
            -0.18484200537204742,
            -0.23376700282096863,
            -0.13734200596809387,
            -0.05585699900984764,
            -0.04463599994778633
          ],
          [
            -0.22205400466918945,
            -0.17818400263786316,
            -0.18175800144672394,
            -0.09424000233411789,
            -0.06550399959087372
          ],
          [
            -0.006010999903082848,
            -0.09128999710083008,
            -0.1038919985294342,
            -0.06752800196409225,
            0.009723999537527561
          ],
          [
            0.15041999518871307,
            0.047614000737667084,
            -0.06623099744319916,
            -0.028835000470280647,
            0.10788699984550476
          ],
          [
            0.1166979968547821,
            0.09631899744272232,
            0.0830560028553009,
            0.08368299901485443,
            0.17788000404834747
          ]
        ]
      ],
      [
        [
          [
            0.037101998925209045,
            -0.06710699945688248,
            -0.09155800193548203,
            -0.011241000145673752,
            -0.05448799952864647
          ],
          [
            0.061204999685287476,
            -0.017232999205589294,
            0.011253999546170235,
            -0.16087299585342407,
            -0.1456580013036728
          ],
          [
            0.023440999910235405,
            -0.0065379999577999115,
            0.09186600148677826,
            0.17229899764060974,
            0.10785099864006042
          ],
          [
            -0.07602199912071228,
            -0.09656000137329102,
            0.032958000898361206,
            0.0984250009059906,
            -0.14912599325180054
          ],
          [
            -0.04137999936938286,
            -0.12104000151157379,
            -0.10270299762487411,
            -0.08797699958086014,
            -0.14004899561405182
          ]
        ],
        [
          [
            -0.022059999406337738,
            0.01334299985319376,
            -0.1773969978094101,
            -0.09851100295782089,
            -0.13776999711990356
          ],
          [
            -0.09850999712944031,
            -0.07069800049066544,
            -0.1121319979429245,
            -0.048601001501083374,
            -0.0882520005106926
          ],
          [
            -0.21543599665164948,
            -0.011397999711334705,
            0.04880699887871742,
            0.09479700028896332,
            0.16004599630832672
          ],
          [
            -0.14499600231647491,
            -0.111565001308918,
            -0.2817380130290985,
            -0.21859200298786163,
            -0.08084200322628021
          ],
          [
            -0.031279999762773514,
            -0.14993000030517578,
            -0.29048699140548706,
            -0.08110799640417099,
            0.18973900377750397
          ]
        ],
        [
          [
            0.01926100067794323,
            -0.07409200072288513,
            -0.11829599738121033,
            -0.04097500070929527,
            0.03183100000023842
          ],
          [
            0.13909700512886047,
            0.03311000019311905,
            -0.00521400012075901,
            -0.11111299693584442,
            -0.1127609983086586
          ],
          [
            0.04912799969315529,
            -0.03136099874973297,
            0.12880900502204895,
            0.12510399520397186,
            0.0970430001616478
          ],
          [
            -0.10799799859523773,
            -0.051364999264478683,
            0.05044599995017052,
            0.10162399709224701,
            0.054246000945568085
          ],
          [
            -0.14309099316596985,
            -0.08021199703216553,
            0.0024649999104440212,
            -0.07910899817943573,
            -0.11288399994373322
          ]
        ],
        [
          [
            -0.07159599661827087,
            -0.020098000764846802,
            -0.025716999545693398,
            0.017284000292420387,
            -0.023785000666975975
          ],
          [
            -0.20591400563716888,
            -0.0808510035276413,
            0.013876999728381634,
            -0.10087999701499939,
            -0.0590750016272068
          ],
          [
            -0.1968650072813034,
            -0.21244099736213684,
            -0.08563800156116486,
            0.10761900246143341,
            0.18011300265789032
          ],
          [
            -0.2161480039358139,
            -0.16899000108242035,
            -0.2019599974155426,
            -0.25040701031684875,
            -0.03764300048351288
          ],
          [
            -0.07361400127410889,
            -0.07705900073051453,
            -0.30872198939323425,
            -0.2771719992160797,
            0.11378999799489975
          ]
        ],
        [
          [
            -0.08268599957227707,
            0.05130799859762192,
            0.11557000130414963,
            0.11972499638795853,
            0.13680699467658997
          ],
          [
            -0.05448399856686592,
            -0.06367599964141846,
            -0.13791699707508087,
            0.01872899942100048,
            0.1217930018901825
          ],
          [
            0.03644600138068199,
            -0.04538099840283394,
            -0.19089999794960022,
            -0.11965099722146988,
            -0.06648000329732895
          ],
          [
            0.0418969988822937,
            -0.0575530007481575,
            -0.03755100071430206,
            -0.10527399927377701,
            0.018331000581383705
          ],
          [
            0.09488999843597412,
            0.1120309978723526,
            0.08710499852895737,
            0.12950800359249115,
            0.1016319990158081
          ]
        ],
        [
          [
            -0.013642000034451485,
            0.19597700238227844,
            0.05588899925351143,
            0.1199209988117218,
            -0.0690540000796318
          ],
          [
            0.02693299949169159,
            0.12070100009441376,
            0.09359399974346161,
            0.0318400003015995,
            -0.059126999229192734
          ],
          [
            -0.006837999913841486,
            -0.011509000323712826,
            -0.06446000188589096,
            -0.0257789995521307,
            -0.19791600108146667
          ],
          [
            0.05946499854326248,
            -0.057374000549316406,
            -0.16372400522232056,
            -0.0806879997253418,
            -0.05277600139379501
          ],
          [
            0.008561999537050724,
            0.011629999615252018,
            -0.11477799713611603,
            -0.08070400357246399,
            -0.042190998792648315
          ]
        ]
      ],
      [
        [
          [
            -0.02602599933743477,
            -0.10927599668502808,
            0.07893600314855576,
            0.021541999652981758,
            -0.029656000435352325
          ],
          [
            -0.13327200710773468,
            0.012691999785602093,
            0.09895800054073334,
            0.042052000761032104,
            0.05923499912023544
          ],
          [
            -0.3178449869155884,
            -0.008787999860942364,
            0.1588660031557083,
            0.01562800072133541,
            -0.15363700687885284
          ],
          [
            -0.20478299260139465,
            -0.08004400134086609,
            -0.09624599665403366,
            -0.17968200147151947,
            -0.11275500059127808
          ],
          [
            -0.16570599377155304,
            -0.03342999890446663,
            -0.004449999891221523,
            -0.11828699707984924,
            0.090038001537323
          ]
        ],
        [
          [
            0.21485599875450134,
            0.100102998316288,
            -0.11017800122499466,
            0.06075200065970421,
            0.09180299937725067
          ],
          [
            0.3020099997520447,
            0.07395199686288834,
            0.03419100120663643,
            0.023826999589800835,
            0.11925700306892395
          ],
          [
            0.32277199625968933,
            -0.022516999393701553,
            -0.01646599918603897,
            -0.19404299557209015,
            0.0020129999611526728
          ],
          [
            0.2408130019903183,
            -0.1736139953136444,
            -0.1416260004043579,
            -0.1561560034751892,
            0.09366200119256973
          ],
          [
            0.11350400000810623,
            -0.10421299934387207,
            -0.005156999919563532,
            0.22315500676631927,
            -0.008503000251948833
          ]
        ],
        [
          [
            -0.012041999958455563,
            -0.13457700610160828,
            0.02496499940752983,
            -0.12251900136470795,
            -0.12674300372600555
          ],
          [
            -0.15036100149154663,
            -0.14888300001621246,
            -8.299999899463728e-05,
            -0.03931200131773949,
            0.002592999953776598
          ],
          [
            -0.14671899378299713,
            -0.021734999492764473,
            0.1889449954032898,
            0.1750900000333786,
            -0.018420999869704247
          ],
          [
            -0.17147499322891235,
            0.013334999792277813,
            -0.04334700107574463,
            -0.059978000819683075,
            -0.14352400600910187
          ],
          [
            -0.05550599843263626,
            0.03585699945688248,
            -0.02014799974858761,
            -0.02527100034058094,
            0.0929040014743805
          ]
        ],
        [
          [
            0.04521000012755394,
            0.09930499643087387,
            -0.19847600162029266,
            -0.1154630035161972,
            0.01825300045311451
          ],
          [
            0.05917799845337868,
            0.052730999886989594,
            -0.1097399964928627,
            -0.04724700003862381,
            -0.06745599955320358
          ],
          [
            0.09631600230932236,
            0.0362199991941452,
            -0.033174000680446625,
            -0.08624900132417679,
            -0.16764800250530243
          ],
          [
            0.058226000517606735,
            -0.0583220012485981,
            -0.17503799498081207,
            -0.24397599697113037,
            0.0031789999920874834
          ],
          [
            0.08761899918317795,
            -0.01898300088942051,
            -0.07342100143432617,
            0.10364100337028503,
            0.23849700391292572
          ]
        ],
        [
          [
            -0.01483600027859211,
            0.0388140007853508,
            -0.026784000918269157,
            -0.16737399995326996,
            -0.18180499970912933
          ],
          [
            0.026365000754594803,
            -0.08639399707317352,
            -0.2046090066432953,
            -0.22559000551700592,
            -0.13595999777317047
          ],
          [
            -0.032673001289367676,
            -0.0087890001013875,
            -0.17505699396133423,
            -0.0760829970240593,
            0.06064999848604202
          ],
          [
            -0.043758999556303024,
            0.029114000499248505,
            0.14590799808502197,
            0.2261579930782318,
            0.11813899874687195
          ],
          [
            0.03395399823784828,
            0.06431999802589417,
            0.1066650003194809,
            -0.007639000192284584,
            -0.006829999852925539
          ]
        ],
        [
          [
            0.08625199645757675,
            0.0943320021033287,
            0.007187000010162592,
            0.06845899671316147,
            0.1431259959936142
          ],
          [
            0.2561439871788025,
            0.18224500119686127,
            0.01261799968779087,
            -0.016933999955654144,
            -0.06723900139331818
          ],
          [
            0.13186199963092804,
            0.10176800191402435,
            0.03545700013637543,
            -0.06301700323820114,
            -0.01409399975091219
          ],
          [
            0.2654370069503784,
            0.11692400276660919,
            0.08623600006103516,
            0.011699999682605267,
            -0.09594500064849854
          ],
          [
            0.24884100258350372,
            0.17999300360679626,
            0.03560300171375275,
            0.05788600072264671,
            -0.13532599806785583
          ]
        ]
      ],
      [
        [
          [
            0.039712999016046524,
            0.0460130013525486,
            0.004749000072479248,
            0.10194499790668488,
            0.03665800020098686
          ],
          [
            -0.018734000623226166,
            -0.05103699862957001,
            -0.13590599596500397,
            0.06574700027704239,
            -0.0027920000720769167
          ],
          [
            -0.0858369991183281,
            -0.17434099316596985,
            -0.22841499745845795,
            -0.24651700258255005,
            -0.2033649981021881
          ],
          [
            -0.012578999623656273,
            -0.023493999615311623,
            -0.04546000063419342,
            -0.11317799985408783,
            -0.25501999258995056
          ],
          [
            -0.03956500068306923,
            -0.047929998487234116,
            -0.16444100439548492,
            -0.06475300341844559,
            -0.16246700286865234
          ]
        ],
        [
          [
            -0.037882000207901,
            -0.12421999871730804,
            -0.07678999751806259,
            -0.08665099740028381,
            -0.004162000026553869
          ],
          [
            -0.0979750007390976,
            -0.15609900653362274,
            -0.14898499846458435,
            -0.20292599499225616,
            0.16931100189685822
          ],
          [
            0.13521699607372284,
            0.14017200469970703,
            -0.01875700056552887,
            -0.24181999266147614,
            -0.10426100343465805
          ],
          [
            0.2338709980249405,
            0.24287599325180054,
            0.3036080002784729,
            0.12978200614452362,
            -0.06899499893188477
          ],
          [
            -0.008315999992191792,
            -0.029603999108076096,
            0.1419299989938736,
            0.13065500557422638,
            0.1465969979763031
          ]
        ],
        [
          [
            0.0565899983048439,
            0.016141999512910843,
            0.025485999882221222,
            0.0802609995007515,
            0.017875000834465027
          ],
          [
            -0.03235099837183952,
            -0.07605700194835663,
            -0.07221899926662445,
            0.11871500313282013,
            0.06266699731349945
          ],
          [
            -0.12671199440956116,
            -0.21491600573062897,
            -0.18465599417686462,
            -0.1538120061159134,
            -0.1213269978761673
          ],
          [
            -0.09160300344228745,
            -0.04084800183773041,
            -0.03382600098848343,
            -0.1429080069065094,
            -0.22476300597190857
          ],
          [
            0.003046999918296933,
            -0.009611000306904316,
            -0.027528999373316765,
            -0.09983199834823608,
            -0.24263900518417358
          ]
        ],
        [
          [
            0.002810999983921647,
            -0.16428300738334656,
            -0.07280399650335312,
            -0.03166300058364868,
            -0.05638900026679039
          ],
          [
            -0.002607000060379505,
            -0.13251399993896484,
            -0.14079900085926056,
            -0.082846999168396,
            0.006510999985039234
          ],
          [
            0.0023620000574737787,
            0.12178999930620193,
            0.10564199835062027,
            -0.1980219930410385,
            -0.09885500371456146
          ],
          [
            0.22475899755954742,
            0.20888200402259827,
            0.2933570146560669,
            0.18374300003051758,
            0.002386000007390976
          ],
          [
            0.11994100362062454,
            0.11896300315856934,
            0.16267399489879608,
            0.13324399292469025,
            0.11513099819421768
          ]
        ],
        [
          [
            0.0778769999742508,
            0.10778000205755234,
            0.10947000235319138,
            -0.028239000588655472,
            -0.03920700028538704
          ],
          [
            0.26005101203918457,
            0.13130100071430206,
            0.14091399312019348,
            0.07616300135850906,
            0.01714400015771389
          ],
          [
            0.22916899621486664,
            0.20725500583648682,
            0.29597601294517517,
            0.30139899253845215,
            0.15443499386310577
          ],
          [
            0.019354000687599182,
            0.032225001603364944,
            0.04265600070357323,
            0.2903420031070709,
            0.15570199489593506
          ],
          [
            0.02083900012075901,
            0.054363999515771866,
            0.16999299824237823,
            0.23693899810314178,
            0.12900300323963165
          ]
        ],
        [
          [
            0.028602000325918198,
            -0.014480999670922756,
            -0.17552100121974945,
            -0.17028500139713287,
            -0.08258400112390518
          ],
          [
            0.034786999225616455,
            0.01521500013768673,
            -0.0029140000697225332,
            -0.1281449943780899,
            -0.12976600229740143
          ],
          [
            0.01752300001680851,
            0.08852499723434448,
            0.08337599784135818,
            -0.07564699649810791,
            -0.1300709992647171
          ],
          [
            0.06970100104808807,
            0.09474000334739685,
            -0.06608299911022186,
            -0.14380000531673431,
            -0.129721999168396
          ],
          [
            0.009072000160813332,
            -0.07506600022315979,
            -0.04050799831748009,
            -0.0115769999101758,
            0.03568900004029274
          ]
        ]
      ],
      [
        [
          [
            0.1054840013384819,
            0.017986999824643135,
            0.04192199930548668,
            -0.04940500110387802,
            -0.20454199612140656
          ],
          [
            -0.012922000139951706,
            -0.026239000260829926,
            -0.15494899451732635,
            -0.16472400724887848,
            -0.0628649964928627
          ],
          [
            -0.010483000427484512,
            -0.09719900041818619,
            -0.10053200274705887,
            -0.09862899780273438,
            0.08880600333213806
          ],
          [
            -0.005131999962031841,
            0.09292600303888321,
            0.2819960117340088,
            0.14932699501514435,
            0.06556999683380127
          ],
          [
            -0.05968400090932846,
            -0.08252199739217758,
            -0.00953499972820282,
            -0.015622000209987164,
            0.09252399951219559
          ]
        ],
        [
          [
            -0.019625000655651093,
            0.042573001235723495,
            -0.002136999974027276,
            -0.007575999945402145,
            -0.08150099962949753
          ],
          [
            0.007455999962985516,
            -0.07861299812793732,
            0.045235998928546906,
            0.191880002617836,
            0.3581329882144928
          ],
          [
            0.08464699983596802,
            0.1578100025653839,
            0.20263999700546265,
            0.13475599884986877,
            0.11393799632787704
          ],
          [
            0.041397999972105026,
            0.12191499769687653,
            0.12289199978113174,
            0.08575200289487839,
            -0.03918600082397461
          ],
          [
            -0.1132109984755516,
            -0.21320800483226776,
            -0.1417039930820465,
            -0.0475349985063076,
            0.06881800293922424
          ]
        ],
        [
          [
            0.03224100172519684,
            0.12155599892139435,
            0.2740280032157898,
            0.17747899889945984,
            -0.0941540002822876
          ],
          [
            0.06377100199460983,
            0.007860000245273113,
            -0.017973000183701515,
            -0.13888399302959442,
            -0.10383299738168716
          ],
          [
            0.07718300074338913,
            -0.0739080011844635,
            -0.14246399700641632,
            -0.02982800081372261,
            0.023287000134587288
          ],
          [
            0.04773399978876114,
            0.16627399623394012,
            0.2571139931678772,
            0.119268998503685,
            0.006990000139921904
          ],
          [
            -0.09172900021076202,
            -0.035698000341653824,
            0.05177399888634682,
            -0.03557100147008896,
            -0.014449999667704105
          ]
        ],
        [
          [
            -0.06657399982213974,
            0.0009970000246539712,
            0.07587099820375443,
            0.07304500043392181,
            -0.04993399977684021
          ],
          [
            -0.03251099959015846,
            -0.09814299643039703,
            -0.08621799945831299,
            0.1199750006198883,
            0.17920300364494324
          ],
          [
            -0.012380000203847885,
            0.09357199817895889,
            0.154448002576828,
            0.2386070042848587,
            0.19183599948883057
          ],
          [
            0.09118399769067764,
            0.22082899510860443,
            0.27981099486351013,
            0.09967900067567825,
            0.02864699997007847
          ],
          [
            -0.04192600026726723,
            -0.17168299853801727,
            -0.10305199772119522,
            -0.0755160003900528,
            0.05184900015592575
          ]
        ],
        [
          [
            -0.1512639969587326,
            -0.15669700503349304,
            -0.14340999722480774,
            -0.09163200110197067,
            0.10335499793291092
          ],
          [
            -0.09229599684476852,
            -0.034662000834941864,
            0.10203099995851517,
            -0.023700999096035957,
            -0.02049900032579899
          ],
          [
            -0.2332099974155426,
            -0.14146700501441956,
            -0.10241799801588058,
            -0.030458999797701836,
            -0.06661500036716461
          ],
          [
            -0.1874759942293167,
            -0.1980150043964386,
            -0.27673399448394775,
            -0.13512299954891205,
            0.009878999553620815
          ],
          [
            0.08745300024747849,
            0.05089699849486351,
            0.005264999810606241,
            0.10517200082540512,
            -0.015250000171363354
          ]
        ],
        [
          [
            0.017316000536084175,
            -0.033535998314619064,
            0.03370700031518936,
            0.034619998186826706,
            0.2005860060453415
          ],
          [
            0.060123998671770096,
            0.09922300279140472,
            0.037703000009059906,
            0.11489599943161011,
            0.1402589976787567
          ],
          [
            0.2425999939441681,
            0.14397700130939484,
            0.09697899967432022,
            0.1068039983510971,
            0.08671700209379196
          ],
          [
            0.06876000016927719,
            -0.0338359996676445,
            0.07836300134658813,
            -0.055240001529455185,
            0.010262000374495983
          ],
          [
            0.0021009999327361584,
            0.013597999699413776,
            -0.03928900137543678,
            -0.01647699996829033,
            -0.02715899981558323
          ]
        ]
      ],
      [
        [
          [
            -0.14821399748325348,
            -0.008887000381946564,
            0.029877999797463417,
            0.09735199809074402,
            -0.06005600094795227
          ],
          [
            0.010173999704420567,
            0.16352799534797668,
            0.3228839933872223,
            0.21360400319099426,
            0.08733399957418442
          ],
          [
            0.03710800036787987,
            0.14204299449920654,
            0.15165099501609802,
            -0.021966999396681786,
            -0.12838700413703918
          ],
          [
            -0.056099001318216324,
            -0.03211599960923195,
            -0.10022599995136261,
            -0.1565130054950714,
            -0.01271000038832426
          ],
          [
            -0.0548969991505146,
            -0.031665999442338943,
            -0.013938999734818935,
            0.008271999657154083,
            0.1400189995765686
          ]
        ],
        [
          [
            -0.04021000117063522,
            0.1616089940071106,
            0.23299500346183777,
            0.16194599866867065,
            0.09271799772977829
          ],
          [
            0.16357000172138214,
            0.14672799408435822,
            0.15053200721740723,
            0.23283900320529938,
            0.13224199414253235
          ],
          [
            0.07541699707508087,
            -0.1944040060043335,
            -0.17349499464035034,
            -0.15230099856853485,
            -0.19324199855327606
          ],
          [
            0.027752000838518143,
            -0.10185299813747406,
            -0.12495200335979462,
            -0.03965599834918976,
            0.12890799343585968
          ],
          [
            0.10638199746608734,
            0.11246500164270401,
            0.07598699629306793,
            0.11001600325107574,
            0.0011769999982789159
          ]
        ],
        [
          [
            0.0002500000118743628,
            -0.008821999654173851,
            -0.007892999798059464,
            -0.007335000205785036,
            -0.09617800265550613
          ],
          [
            -0.11980199813842773,
            0.047237999737262726,
            0.11011099815368652,
            0.13077199459075928,
            0.05794699862599373
          ],
          [
            0.045198000967502594,
            0.10290800034999847,
            0.18756799399852753,
            0.17734499275684357,
            0.007195999845862389
          ],
          [
            -0.10252799838781357,
            -0.23716400563716888,
            -0.1394370049238205,
            -0.10882700234651566,
            -0.05534600093960762
          ],
          [
            -0.027067000046372414,
            -0.10906700044870377,
            -0.16553600132465363,
            -0.026636000722646713,
            0.1548140048980713
          ]
        ],
        [
          [
            0.10082600265741348,
            0.1254660040140152,
            0.2947250008583069,
            0.1907770037651062,
            0.06551700085401535
          ],
          [
            0.15460599958896637,
            0.20392699539661407,
            0.20176899433135986,
            0.2086549997329712,
            0.17265400290489197
          ],
          [
            0.10061699897050858,
            0.031022999435663223,
            -0.11564800143241882,
            -0.08113300055265427,
            -0.09269700199365616
          ],
          [
            0.11266999691724777,
            -0.172433003783226,
            -0.18003599345684052,
            -0.12976400554180145,
            0.11085300147533417
          ],
          [
            0.1280760020017624,
            -0.03964199870824814,
            0.06065300107002258,
            0.17736299335956573,
            0.19684000313282013
          ]
        ],
        [
          [
            0.12001500278711319,
            -0.0488010011613369,
            0.010482000187039375,
            -0.039294999092817307,
            -0.04062199965119362
          ],
          [
            0.06067200005054474,
            -0.24687400460243225,
            -0.19917400181293488,
            -0.20644399523735046,
            -0.10540100187063217
          ],
          [
            0.06906799972057343,
            -0.012817000038921833,
            0.044068001210689545,
            0.08744999766349792,
            0.18617500364780426
          ],
          [
            0.12343700230121613,
            0.24683000147342682,
            0.23229700326919556,
            0.20927099883556366,
            0.06928200274705887
          ],
          [
            0.0554950013756752,
            0.20191100239753723,
            0.16263699531555176,
            0.14318600296974182,
            0.013725999742746353
          ]
        ],
        [
          [
            0.0983240008354187,
            0.06827700138092041,
            0.16972599923610687,
            0.13578499853610992,
            0.12046100199222565
          ],
          [
            -0.04933900013566017,
            -0.0807500034570694,
            0.052062999457120895,
            0.0422700010240078,
            0.05068099871277809
          ],
          [
            -0.2554599940776825,
            -0.15417900681495667,
            -0.11496800184249878,
            -0.07498499751091003,
            -0.024715999141335487
          ],
          [
            -0.16746699810028076,
            -0.030375000089406967,
            -0.09671399742364883,
            -0.06160400062799454,
            0.02868100069463253
          ],
          [
            0.10661999881267548,
            0.024070000275969505,
            0.029836000874638557,
            0.04040300101041794,
            -0.029399000108242035
          ]
        ]
      ],
      [
        [
          [
            0.035353999584913254,
            0.13945700228214264,
            -0.15593500435352325,
            -0.11610200256109238,
            0.0993880033493042
          ],
          [
            0.06736399978399277,
            0.25134599208831787,
            -0.18506400287151337,
            -0.31552499532699585,
            0.053693000227212906
          ],
          [
            0.10003700107336044,
            0.07793299853801727,
            -0.1082959994673729,
            -0.10863400250673294,
            -0.07090499997138977
          ],
          [
            0.029055999591946602,
            -0.04379099979996681,
            -0.08291999995708466,
            0.03335399925708771,
            -0.13393999636173248
          ],
          [
            0.05821400135755539,
            0.06656300276517868,
            0.03834199905395508,
            0.03016199916601181,
            0.014919999986886978
          ]
        ],
        [
          [
            -0.20789800584316254,
            -0.08960799872875214,
            0.09517599642276764,
            0.054267000406980515,
            0.19496700167655945
          ],
          [
            -0.12981300055980682,
            -0.281466007232666,
            0.242235004901886,
            0.019016999751329422,
            -0.00911100022494793
          ],
          [
            -0.2046850025653839,
            -0.2531929910182953,
            0.36035600304603577,
            0.08306899666786194,
            -0.08027700334787369
          ],
          [
            -0.2566930055618286,
            -0.15378500521183014,
            0.23147499561309814,
            0.12433800101280212,
            -0.13933199644088745
          ],
          [
            -0.15768000483512878,
            -0.09640700370073318,
            0.017636999487876892,
            0.1350329965353012,
            0.1365160048007965
          ]
        ],
        [
          [
            0.07818499952554703,
            0.09763900190591812,
            -0.03849299997091293,
            -0.10535100102424622,
            -0.010293000377714634
          ],
          [
            0.07948599755764008,
            0.1548829972743988,
            -0.055011000484228134,
            -0.2885090112686157,
            0.052654001861810684
          ],
          [
            0.23660600185394287,
            0.2473040074110031,
            -0.10191100090742111,
            -0.036421999335289,
            0.03387099876999855
          ],
          [
            0.22538599371910095,
            0.11561399698257446,
            0.06751900166273117,
            0.10241600126028061,
            -0.015496999956667423
          ],
          [
            0.155581995844841,
            0.10687500238418579,
            0.0589900016784668,
            0.030935000628232956,
            0.03289100155234337
          ]
        ],
        [
          [
            -0.2804259955883026,
            -0.07049799710512161,
            0.10086199641227722,
            -0.014523999765515327,
            0.0707160010933876
          ],
          [
            -0.09821999818086624,
            -0.16457200050354004,
            -0.005464999936521053,
            0.18349100649356842,
            0.09237600117921829
          ],
          [
            0.024802999570965767,
            -0.17188699543476105,
            0.21922799944877625,
            0.24743400514125824,
            0.026278000324964523
          ],
          [
            -0.0009710000013001263,
            -0.11161600053310394,
            0.16220399737358093,
            0.2962479889392853,
            0.1670520007610321
          ],
          [
            -0.06640800088644028,
            -0.0241519995033741,
            0.012152000330388546,
            0.10648900270462036,
            0.22232100367546082
          ]
        ],
        [
          [
            -0.12157700210809708,
            -0.14135199785232544,
            0.04635399952530861,
            0.1876869946718216,
            0.042093001306056976
          ],
          [
            -0.1654690057039261,
            -0.20170199871063232,
            0.02023399993777275,
            0.28512099385261536,
            0.06485900282859802
          ],
          [
            -0.09869600087404251,
            -0.07096099853515625,
            0.136570006608963,
            0.21333199739456177,
            0.059810999780893326
          ],
          [
            -0.05011000111699104,
            -0.0008740000193938613,
            0.14055000245571136,
            0.12785199284553528,
            0.09343799948692322
          ],
          [
            -0.08068700134754181,
            0.10043399780988693,
            0.06289800256490707,
            0.03806399926543236,
            0.049552999436855316
          ]
        ],
        [
          [
            -0.02549700066447258,
            -0.027573000639677048,
            0.16737200319766998,
            0.10694999992847443,
            0.031091999262571335
          ],
          [
            0.0006980000180192292,
            -0.104823999106884,
            0.13060499727725983,
            0.12430799752473831,
            0.025829000398516655
          ],
          [
            -0.1456640064716339,
            -0.17316900193691254,
            0.036316998302936554,
            0.05979900062084198,
            0.06746400147676468
          ],
          [
            -0.11391100287437439,
            -0.0809909999370575,
            -0.0006670000148005784,
            0.20168200135231018,
            0.14296799898147583
          ],
          [
            -0.0324070006608963,
            -0.033190999180078506,
            0.06274600327014923,
            0.16071799397468567,
            0.17752599716186523
          ]
        ]
      ],
      [
        [
          [
            0.06514900177717209,
            0.10258699953556061,
            -0.02644599974155426,
            -0.10775800049304962,
            -0.07923199981451035
          ],
          [
            -0.00016700000560376793,
            0.051534999161958694,
            -0.21102400124073029,
            -0.07690799981355667,
            0.1838269978761673
          ],
          [
            0.06714800000190735,
            0.020468000322580338,
            -0.18973000347614288,
            0.05573999881744385,
            0.2313610017299652
          ],
          [
            0.11867599934339523,
            0.12275300174951553,
            -0.09154900163412094,
            -0.07674399763345718,
            0.1089790016412735
          ],
          [
            0.020204000174999237,
            0.12381599843502045,
            -0.007197000086307526,
            -0.013150000013411045,
            0.04558100178837776
          ]
        ],
        [
          [
            -0.04864099994301796,
            -0.09273099899291992,
            -0.22214800119400024,
            -0.11797100305557251,
            0.036306001245975494
          ],
          [
            -0.08306299895048141,
            -0.08024899661540985,
            0.10580699890851974,
            0.12280800193548203,
            0.07116100192070007
          ],
          [
            0.10937699675559998,
            0.014618000015616417,
            0.22211800515651703,
            0.022438999265432358,
            -0.09715300053358078
          ],
          [
            0.005090999882668257,
            0.15310099720954895,
            0.13421200215816498,
            -0.09350000321865082,
            -0.3064189851284027
          ],
          [
            -0.03183000162243843,
            0.05722000077366829,
            0.20693300664424896,
            -0.017934000119566917,
            -0.15478600561618805
          ]
        ],
        [
          [
            0.1716489940881729,
            0.05976499989628792,
            -0.06232000142335892,
            -0.20069700479507446,
            -0.255389004945755
          ],
          [
            -0.0736600011587143,
            -0.13962900638580322,
            -0.20532800257205963,
            -0.14448100328445435,
            -0.021591000258922577
          ],
          [
            -0.005733999889343977,
            -0.061574000865221024,
            -0.21361200511455536,
            -0.11279600113630295,
            0.1725739985704422
          ],
          [
            0.12631499767303467,
            0.0647289976477623,
            -0.16718900203704834,
            -0.04694899916648865,
            0.10136500000953674
          ],
          [
            -0.029901999980211258,
            0.0011699999449774623,
            -0.06096100062131882,
            -0.0302520003169775,
            -0.03896100074052811
          ]
        ],
        [
          [
            -0.02250000089406967,
            -0.11565099656581879,
            -0.12528100609779358,
            -0.21904000639915466,
            -0.2011529952287674
          ],
          [
            -0.13276700675487518,
            -0.16590900719165802,
            -0.08587300032377243,
            0.010104999877512455,
            -0.05751999840140343
          ],
          [
            0.041085001081228256,
            -0.0008689999813213944,
            0.024661000818014145,
            0.023708999156951904,
            -0.14997699856758118
          ],
          [
            0.026645999401807785,
            0.004064000211656094,
            0.11819300055503845,
            -0.15179899334907532,
            -0.26806798577308655
          ],
          [
            -0.18785199522972107,
            -0.045079998672008514,
            0.05711600184440613,
            -0.02138100005686283,
            -0.14257299900054932
          ]
        ],
        [
          [
            -0.13906900584697723,
            0.0593780018389225,
            0.18195900321006775,
            0.07732599973678589,
            0.13372600078582764
          ],
          [
            0.029743000864982605,
            0.1957470029592514,
            0.048829998821020126,
            0.02301499992609024,
            -0.1829030066728592
          ],
          [
            -0.011068000458180904,
            0.031081000342965126,
            0.10134100168943405,
            -0.07932800054550171,
            -0.18883800506591797
          ],
          [
            -0.04897399991750717,
            -0.07821200042963028,
            0.050981998443603516,
            0.018285999074578285,
            -0.02109299972653389
          ],
          [
            -0.08197399973869324,
            -0.09244800359010696,
            -0.07817500084638596,
            0.029379000887274742,
            0.017917999997735023
          ]
        ],
        [
          [
            0.0698079988360405,
            0.04496299847960472,
            0.07833100110292435,
            0.019589999690651894,
            0.09780099987983704
          ],
          [
            0.20968399941921234,
            0.16759200394153595,
            0.1811870038509369,
            0.1688780039548874,
            0.02489200048148632
          ],
          [
            0.092910997569561,
            0.10666999965906143,
            0.13370199501514435,
            0.012078000232577324,
            -0.10294800251722336
          ],
          [
            -0.10698500275611877,
            0.008948000147938728,
            0.15453700721263885,
            0.0217909999191761,
            -0.0745600014925003
          ],
          [
            -0.24329400062561035,
            -0.1424809992313385,
            0.0709720030426979,
            -0.0747390016913414,
            -0.05763800069689751
          ]
        ]
      ],
      [
        [
          [
            -0.0267379991710186,
            -0.026311999186873436,
            0.036750998347997665,
            0.13154299557209015,
            0.05788400024175644
          ],
          [
            0.13277800381183624,
            0.013257999904453754,
            -0.060201000422239304,
            -0.16755500435829163,
            -0.03982099890708923
          ],
          [
            -0.061813998967409134,
            -0.18517500162124634,
            -0.2837429940700531,
            -0.23567500710487366,
            -0.13290999829769135
          ],
          [
            0.016674000769853592,
            0.0012489999644458294,
            -0.0007120000082068145,
            0.07954700291156769,
            0.11537999659776688
          ],
          [
            0.1074569970369339,
            0.017748000100255013,
            -0.04826299846172333,
            -0.054728999733924866,
            -0.06046599894762039
          ]
        ],
        [
          [
            0.038079001009464264,
            -0.07693599909543991,
            -0.020642999559640884,
            0.18419599533081055,
            0.3611159920692444
          ],
          [
            -0.05840900167822838,
            -0.0947130024433136,
            -0.11145400255918503,
            -0.06431200355291367,
            -0.11009500175714493
          ],
          [
            -0.18131199479103088,
            -0.024322999641299248,
            0.11669199913740158,
            0.1417820006608963,
            0.08916299790143967
          ],
          [
            0.03416699916124344,
            0.2790580093860626,
            0.31398099660873413,
            0.28200700879096985,
            0.17345599830150604
          ],
          [
            -0.1184450015425682,
            -0.051222000271081924,
            -0.00784400012344122,
            0.045517999678850174,
            0.07946900278329849
          ]
        ],
        [
          [
            0.058921001851558685,
            0.04610700160264969,
            0.06729999929666519,
            0.034575000405311584,
            -0.09254799783229828
          ],
          [
            -0.03721199929714203,
            -0.03639400005340576,
            -0.13289299607276917,
            -0.11719100177288055,
            -0.050294000655412674
          ],
          [
            -0.13119900226593018,
            -0.2750529944896698,
            -0.33267900347709656,
            -0.3627600073814392,
            -0.3794440031051636
          ],
          [
            -0.17731299996376038,
            -0.1571429967880249,
            -0.05790499970316887,
            -0.08161299675703049,
            -0.025916000828146935
          ],
          [
            0.136026993393898,
            0.16775399446487427,
            0.08521699905395508,
            0.0005699999746866524,
            -0.07901100069284439
          ]
        ],
        [
          [
            -0.09845399856567383,
            -0.13392800092697144,
            -0.07931999862194061,
            -0.02366900071501732,
            0.1357170045375824
          ],
          [
            -0.0788320004940033,
            -0.08472999930381775,
            -0.09483099728822708,
            -0.06870400160551071,
            -0.014232000336050987
          ],
          [
            -0.2318129986524582,
            -0.1670130044221878,
            -0.007528999820351601,
            0.016743000596761703,
            -0.03510899841785431
          ],
          [
            -0.07011300325393677,
            0.1750590056180954,
            0.29113098978996277,
            0.19748400151729584,
            0.09223700314760208
          ],
          [
            0.14341799914836884,
            0.03989800065755844,
            -0.05240900069475174,
            -0.11375000327825546,
            -0.03606899827718735
          ]
        ],
        [
          [
            -0.06369300186634064,
            -0.027997000142931938,
            -0.075764000415802,
            -0.046202000230550766,
            0.019633999094367027
          ],
          [
            0.0110470000654459,
            0.13599899411201477,
            0.20812800526618958,
            0.15431800484657288,
            0.20734800398349762
          ],
          [
            0.31091201305389404,
            0.2796509861946106,
            0.307002991437912,
            0.2795790135860443,
            0.23949399590492249
          ],
          [
            0.20374099910259247,
            0.0062060002237558365,
            -0.007961999624967575,
            -0.04245999827980995,
            -0.12050999701023102
          ],
          [
            -0.06413999944925308,
            -0.06952600181102753,
            -0.08653300255537033,
            0.06258899718523026,
            0.08147399872541428
          ]
        ],
        [
          [
            -0.03477000072598457,
            -0.026926999911665916,
            -0.01805499941110611,
            -0.06463000178337097,
            -0.039712000638246536
          ],
          [
            0.05805400013923645,
            0.040157999843358994,
            0.026419999077916145,
            -0.09595900028944016,
            0.06231199949979782
          ],
          [
            0.018138999119400978,
            0.05041699856519699,
            -0.026000000536441803,
            -0.12680600583553314,
            0.05084500089287758
          ],
          [
            0.038082998245954514,
            0.027110999450087547,
            -0.03958500176668167,
            -0.06725800037384033,
            0.12010300159454346
          ],
          [
            -0.07484199851751328,
            -0.057743001729249954,
            -0.00030499999411404133,
            -0.06692499667406082,
            0.02970699965953827
          ]
        ]
      ],
      [
        [
          [
            0.08708100020885468,
            0.1943729966878891,
            0.20292599499225616,
            0.014333999715745449,
            -0.056731998920440674
          ],
          [
            0.007294999901205301,
            0.16255399584770203,
            0.21356900036334991,
            0.09621399641036987,
            -0.05468299984931946
          ],
          [
            0.0568929985165596,
            -0.03387099876999855,
            -0.013338999822735786,
            0.04944999888539314,
            0.0614130012691021
          ],
          [
            -0.017660999670624733,
            -0.17861799895763397,
            -0.13313500583171844,
            -0.23040500283241272,
            -0.16940900683403015
          ],
          [
            -0.1381240040063858,
            -0.1712930053472519,
            -0.03985600173473358,
            -0.022924000397324562,
            -0.14205099642276764
          ]
        ],
        [
          [
            0.04519699886441231,
            -0.056067001074552536,
            -0.04092400148510933,
            -0.03211100026965141,
            -0.08424299955368042
          ],
          [
            -0.09490799903869629,
            -0.18583400547504425,
            -0.0014959999825805426,
            0.11533000320196152,
            0.11790399998426437
          ],
          [
            0.017243999987840652,
            -0.2273779958486557,
            -0.2956010103225708,
            -0.05069600045681,
            0.17630800604820251
          ],
          [
            -0.008692000061273575,
            -0.04433700069785118,
            -0.15859100222587585,
            -0.1536320000886917,
            -0.15019799768924713
          ],
          [
            0.10783799737691879,
            0.1691569983959198,
            0.19312900304794312,
            0.13958300650119781,
            -0.01219400018453598
          ]
        ],
        [
          [
            0.10512799769639969,
            0.08911100029945374,
            0.11432299762964249,
            -0.0250450000166893,
            -0.03483700007200241
          ],
          [
            0.02674799971282482,
            0.14503900706768036,
            0.1257690042257309,
            0.06893700361251831,
            0.040199000388383865
          ],
          [
            0.0153590003028512,
            0.003398000029847026,
            0.09835900366306305,
            0.26215699315071106,
            0.21890899538993835
          ],
          [
            -0.08499100059270859,
            -0.24039900302886963,
            -0.20260000228881836,
            -0.25062400102615356,
            -0.14656400680541992
          ],
          [
            -0.1202469989657402,
            -0.17789599299430847,
            -0.1254190057516098,
            -0.09609100222587585,
            -0.16500499844551086
          ]
        ],
        [
          [
            0.039712000638246536,
            0.05734900012612343,
            -0.039972998201847076,
            -0.006006999872624874,
            -0.01420699991285801
          ],
          [
            -0.061379000544548035,
            -0.10480400174856186,
            -0.015344000421464443,
            0.1736450046300888,
            0.13625900447368622
          ],
          [
            -0.053661998361349106,
            -0.17795799672603607,
            -0.1471949964761734,
            0.033975999802351,
            0.2755120098590851
          ],
          [
            -0.044234998524188995,
            0.0032659999560564756,
            -0.22322200238704681,
            -0.24343299865722656,
            -0.07450000196695328
          ],
          [
            0.006566000171005726,
            0.09202499687671661,
            0.1270039975643158,
            0.060819998383522034,
            0.039549000561237335
          ]
        ],
        [
          [
            -0.01235199999064207,
            -0.0825209990143776,
            -0.11894900351762772,
            0.0832810029387474,
            0.07641199976205826
          ],
          [
            0.0486380010843277,
            0.014171999879181385,
            -0.12339100241661072,
            -0.051385000348091125,
            -0.15970000624656677
          ],
          [
            0.12320800125598907,
            0.16359800100326538,
            0.11741899698972702,
            -0.09988400340080261,
            -0.2245520055294037
          ],
          [
            0.12939000129699707,
            0.0907370001077652,
            0.1533769965171814,
            0.1150830015540123,
            0.032416000962257385
          ],
          [
            0.14983800053596497,
            0.1041790023446083,
            -0.012024999596178532,
            0.011483999900519848,
            -0.013496999628841877
          ]
        ],
        [
          [
            -0.223580002784729,
            -0.192672997713089,
            -0.2614949941635132,
            -0.14835700392723083,
            -0.03782999888062477
          ],
          [
            -0.17238900065422058,
            -0.11741200089454651,
            -0.08355800062417984,
            -0.11627200245857239,
            -0.03963899984955788
          ],
          [
            -0.030709000304341316,
            -0.12874500453472137,
            -0.05882599949836731,
            -0.04941900074481964,
            -0.05223400145769119
          ],
          [
            -0.004151000175625086,
            0.0020729999523609877,
            -0.07373400032520294,
            0.04150500148534775,
            0.03829300031065941
          ],
          [
            -0.024991000071167946,
            0.05691799893975258,
            0.07603500038385391,
            0.030690999701619148,
            0.14140400290489197
          ]
        ]
      ],
      [
        [
          [
            0.02280000038444996,
            -0.0034199999645352364,
            -0.09299600124359131,
            0.023713000118732452,
            -0.052407000213861465
          ],
          [
            0.04141400009393692,
            -0.11474599689245224,
            -0.04068399965763092,
            0.0044189998880028725,
            0.055764999240636826
          ],
          [
            -0.1083419993519783,
            -0.09022899717092514,
            -0.04248199984431267,
            0.030306000262498856,
            0.14085499942302704
          ],
          [
            -0.14786399900913239,
            0.06506399810314178,
            0.22186699509620667,
            0.14866800606250763,
            -0.07416799664497375
          ],
          [
            0.02429799921810627,
            0.3246369957923889,
            0.12321300059556961,
            -0.07558000087738037,
            -0.1967500001192093
          ]
        ],
        [
          [
            -0.031036000698804855,
            -0.07472799718379974,
            -0.049375999718904495,
            -0.08531200140714645,
            -0.040001001209020615
          ],
          [
            0.13472400605678558,
            -0.01600399985909462,
            -0.05547700077295303,
            0.07024399936199188,
            0.15435299277305603
          ],
          [
            0.10774700343608856,
            -0.026089999824762344,
            0.10947500169277191,
            0.0661889985203743,
            -0.01733200065791607
          ],
          [
            0.08838800340890884,
            0.06850100308656693,
            0.1280509978532791,
            -0.17516200244426727,
            -0.13359799981117249
          ],
          [
            0.24301700294017792,
            -0.0795150026679039,
            -0.24995200335979462,
            -0.21817700564861298,
            0.03613099828362465
          ]
        ],
        [
          [
            -0.006479999981820583,
            0.08555199950933456,
            -0.01789899915456772,
            -0.01940000057220459,
            -0.09535200148820877
          ],
          [
            -0.03351899981498718,
            -0.08805599808692932,
            -0.07851599901914597,
            -0.046199001371860504,
            0.005198999773710966
          ],
          [
            0.01422400027513504,
            -0.09507399797439575,
            -0.018588000908493996,
            0.08951199799776077,
            0.3390769958496094
          ],
          [
            -0.19560100138187408,
            -0.0501290000975132,
            0.19763900339603424,
            0.3167000114917755,
            0.17455099523067474
          ],
          [
            -0.09359099715948105,
            0.29781898856163025,
            0.2404399961233139,
            0.09493300318717957,
            -0.10163400322198868
          ]
        ],
        [
          [
            0.04958000034093857,
            0.007619000039994717,
            -0.012413999997079372,
            0.06444499641656876,
            -0.03023199923336506
          ],
          [
            0.16605399549007416,
            0.056984998285770416,
            -0.024176999926567078,
            0.057989999651908875,
            0.1540600061416626
          ],
          [
            0.10704799741506577,
            0.1521649956703186,
            0.16048400104045868,
            0.204585999250412,
            0.06456100195646286
          ],
          [
            0.014262000098824501,
            0.1328269988298416,
            0.2677220106124878,
            0.09796299785375595,
            -0.12686499953269958
          ],
          [
            0.30682799220085144,
            0.08592499792575836,
            -0.07038500159978867,
            -0.2623020112514496,
            0.002689999993890524
          ]
        ],
        [
          [
            0.0778919979929924,
            0.0674550011754036,
            0.0922430008649826,
            0.054627999663352966,
            0.015935000032186508
          ],
          [
            0.11804699897766113,
            0.22929799556732178,
            0.19334900379180908,
            -0.023795999586582184,
            -0.15933500230312347
          ],
          [
            0.22045199573040009,
            0.10657200217247009,
            0.024769000709056854,
            -0.19342200458049774,
            -0.30198898911476135
          ],
          [
            0.15739800035953522,
            -0.09148599952459335,
            -0.27403900027275085,
            -0.22347800433635712,
            -0.129831001162529
          ],
          [
            -0.21328899264335632,
            -0.2154950052499771,
            -0.1514589935541153,
            -0.021557999774813652,
            0.091730996966362
          ]
        ],
        [
          [
            -0.09773200005292892,
            -0.027365000918507576,
            -0.052060000598430634,
            -0.04596500098705292,
            0.04905800148844719
          ],
          [
            -0.15459999442100525,
            -0.070032998919487,
            -0.07342299818992615,
            0.07558199763298035,
            0.1787319928407669
          ],
          [
            -0.03367599844932556,
            -0.0511149987578392,
            0.04549900069832802,
            0.16454100608825684,
            0.10983700305223465
          ],
          [
            0.03628600016236305,
            0.058772001415491104,
            0.029472999274730682,
            0.15452900528907776,
            0.11004900187253952
          ],
          [
            0.07765000313520432,
            0.09272699803113937,
            0.04741400107741356,
            0.1648239940404892,
            0.07552599906921387
          ]
        ]
      ],
      [
        [
          [
            0.01406100019812584,
            0.023421000689268112,
            -0.010207000188529491,
            0.03384999930858612,
            0.06148599833250046
          ],
          [
            0.07122699916362762,
            -0.02438100054860115,
            0.04871600121259689,
            0.10683900117874146,
            0.051805999130010605
          ],
          [
            -0.04259299859404564,
            -0.044732000678777695,
            0.09272000193595886,
            -0.009235000237822533,
            -0.012125000357627869
          ],
          [
            -0.024070000275969505,
            0.057328000664711,
            0.11320099979639053,
            -0.07959800213575363,
            0.04653700068593025
          ],
          [
            -0.010394999757409096,
            -0.05229799821972847,
            -0.10847300291061401,
            -0.047263000160455704,
            0.009225999936461449
          ]
        ],
        [
          [
            0.017416000366210938,
            -0.06458300352096558,
            0.028566999360919,
            -0.025100000202655792,
            -0.047905001789331436
          ],
          [
            0.06757000088691711,
            0.05301700159907341,
            0.03642499819397926,
            0.15903599560260773,
            0.06867100298404694
          ],
          [
            0.11313100159168243,
            0.20921500027179718,
            -0.05143500119447708,
            0.07015799731016159,
            0.047968000173568726
          ],
          [
            0.16060000658035278,
            0.00790099985897541,
            -0.006787000223994255,
            0.19706599414348602,
            0.092180997133255
          ],
          [
            0.03327000141143799,
            -0.0410350002348423,
            0.14647500216960907,
            0.1228490024805069,
            -0.042775001376867294
          ]
        ],
        [
          [
            0.036793000996112823,
            -0.044273000210523605,
            -0.03112100064754486,
            0.1519169956445694,
            0.15558399260044098
          ],
          [
            0.005142999812960625,
            -0.0863569974899292,
            -0.02231300063431263,
            0.04789799824357033,
            -0.021807000041007996
          ],
          [
            -0.026311999186873436,
            -0.10715799778699875,
            -0.018967000767588615,
            -0.00991399958729744,
            0.04417499899864197
          ],
          [
            0.027688000351190567,
            0.023209000006318092,
            0.01805499941110611,
            -0.17326200008392334,
            0.0020520000252872705
          ],
          [
            -0.004935000091791153,
            -0.025123000144958496,
            -0.10002999752759933,
            -0.09593500196933746,
            0.004970000125467777
          ]
        ],
        [
          [
            0.007302999962121248,
            -0.014685999602079391,
            0.005787000060081482,
            0.06266699731349945,
            0.12449999898672104
          ],
          [
            0.09784699976444244,
            0.03127000108361244,
            0.17997999489307404,
            0.12413900345563889,
            0.11913300305604935
          ],
          [
            0.09447400271892548,
            0.26081201434135437,
            0.1924860030412674,
            0.0720210000872612,
            0.15330299735069275
          ],
          [
            0.0925849974155426,
            0.2656640112400055,
            0.13917100429534912,
            0.1627569943666458,
            0.12213099747896194
          ],
          [
            0.15262100100517273,
            0.14720399677753448,
            0.11911699920892715,
            0.23491600155830383,
            0.10814599692821503
          ]
        ],
        [
          [
            0.19522300362586975,
            0.19833999872207642,
            0.05162300169467926,
            0.09344100207090378,
            0.11062300205230713
          ],
          [
            0.19016499817371368,
            0.19784800708293915,
            0.08124999701976776,
            0.032648999243974686,
            0.11920099705457687
          ],
          [
            0.21711400151252747,
            0.11104399710893631,
            0.2327129989862442,
            0.1740580052137375,
            0.034706000238657
          ],
          [
            0.010242000222206116,
            0.045563001185655594,
            0.1626249998807907,
            0.058775998651981354,
            0.05822800099849701
          ],
          [
            -0.046268001198768616,
            -0.0007309999782592058,
            -0.020690999925136566,
            0.06942799687385559,
            0.06666699796915054
          ]
        ],
        [
          [
            -0.2816689908504486,
            -0.26754000782966614,
            -0.17592500150203705,
            -0.1833990067243576,
            -0.2196130007505417
          ],
          [
            -0.17124299705028534,
            -0.1846739947795868,
            -0.27345800399780273,
            -0.10362300276756287,
            -0.06170399859547615
          ],
          [
            -0.2685840129852295,
            -0.3475559949874878,
            -0.20986700057983398,
            -0.16646899282932281,
            0.02149599976837635
          ],
          [
            -0.24080699682235718,
            -0.22228999435901642,
            -0.06809599697589874,
            0.03176200017333031,
            0.025200000032782555
          ],
          [
            -0.1727290004491806,
            -0.13755099475383759,
            0.03824400156736374,
            -0.02970300056040287,
            0.06786400079727173
          ]
        ]
      ],
      [
        [
          [
            -0.14619199931621552,
            -0.04083000123500824,
            0.20476999878883362,
            0.13875000178813934,
            -0.07993700355291367
          ],
          [
            -0.0384880006313324,
            0.011454000137746334,
            0.04712300002574921,
            0.08967000246047974,
            0.05151800066232681
          ],
          [
            -0.0017419999931007624,
            -0.08313599973917007,
            -0.2787710130214691,
            -0.19665099680423737,
            -0.03875099867582321
          ],
          [
            -0.0004299999854993075,
            -0.13964900374412537,
            -0.20801100134849548,
            -0.16595600545406342,
            -0.10789500176906586
          ],
          [
            0.06380899995565414,
            0.1467760056257248,
            0.09033700078725815,
            0.06350599974393845,
            -0.014791999943554401
          ]
        ],
        [
          [
            -0.04698900133371353,
            0.01513999979943037,
            0.061962999403476715,
            0.12293200194835663,
            -0.09071099758148193
          ],
          [
            0.10868000239133835,
            0.019564000889658928,
            -0.06857600063085556,
            0.13417600095272064,
            0.12080699950456619
          ],
          [
            -0.138932004570961,
            -0.23570400476455688,
            -0.1729319989681244,
            -0.2245119959115982,
            -0.21904900670051575
          ],
          [
            0.06853999942541122,
            0.22653399407863617,
            0.23575900495052338,
            0.14393599331378937,
            0.03395799919962883
          ],
          [
            0.11067800223827362,
            0.13775399327278137,
            0.27948200702667236,
            0.20976300537586212,
            0.1334580034017563
          ]
        ],
        [
          [
            0.022811999544501305,
            0.12110000103712082,
            0.20100100338459015,
            0.11997900158166885,
            -0.10972700268030167
          ],
          [
            -0.04981699958443642,
            0.051058001816272736,
            0.09031900018453598,
            0.04641899839043617,
            -0.016749000176787376
          ],
          [
            -0.009219000115990639,
            0.010800999589264393,
            -0.08097700029611588,
            -0.18346799910068512,
            -0.07931999862194061
          ],
          [
            -0.08564099669456482,
            -0.29778599739074707,
            -0.4106940031051636,
            -0.3497749865055084,
            -0.2678860127925873
          ],
          [
            0.18833599984645844,
            0.11442799866199493,
            0.0009319999953731894,
            -0.027838999405503273,
            -0.06710600107908249
          ]
        ],
        [
          [
            -0.07318499684333801,
            -0.005311000160872936,
            0.025113999843597412,
            0.02876099944114685,
            -0.0741100013256073
          ],
          [
            -0.04404300078749657,
            -0.06407099962234497,
            -0.16537299752235413,
            -0.1245800033211708,
            0.14721499383449554
          ],
          [
            -0.11271999776363373,
            -0.17840799689292908,
            -0.3037570118904114,
            -0.17814399302005768,
            -0.11660700291395187
          ],
          [
            -0.11098399758338928,
            0.034630000591278076,
            0.017230000346899033,
            -0.018317999318242073,
            -0.027938999235630035
          ],
          [
            0.14709900319576263,
            0.2414270043373108,
            0.21159100532531738,
            0.20438100397586823,
            0.061076998710632324
          ]
        ],
        [
          [
            0.0012890000361949205,
            -0.10465700179338455,
            -0.16255000233650208,
            -0.19904300570487976,
            -0.041179999709129333
          ],
          [
            0.005836999975144863,
            0.05775599926710129,
            0.04772799834609032,
            -0.0035600000992417336,
            -0.10151299834251404
          ],
          [
            0.09398800134658813,
            0.14410500228405,
            0.22465500235557556,
            0.20535899698734283,
            0.04092799872159958
          ],
          [
            0.034710001200437546,
            0.08480899780988693,
            0.04997900128364563,
            0.20540499687194824,
            0.07459399849176407
          ],
          [
            -0.058194998651742935,
            -0.26579201221466064,
            -0.241224005818367,
            -0.08911900222301483,
            0.0018649999983608723
          ]
        ],
        [
          [
            -0.10115399956703186,
            -0.09624899923801422,
            -0.0030350000597536564,
            -0.0016220000106841326,
            -0.03266099840402603
          ],
          [
            -0.09243399649858475,
            -0.0807960033416748,
            -0.02838199958205223,
            -0.11443299800157547,
            -0.1561329960823059
          ],
          [
            0.06335899978876114,
            0.10059099644422531,
            0.06582000106573105,
            0.04899799823760986,
            -0.09853699803352356
          ],
          [
            -0.017427999526262283,
            0.12849600613117218,
            0.10300800204277039,
            -0.013026000000536442,
            -0.0022780001163482666
          ],
          [
            -0.023205000907182693,
            -0.08703000098466873,
            0.04173000156879425,
            0.0046190000139176846,
            0.09622199833393097
          ]
        ]
      ],
      [
        [
          [
            -0.05332399904727936,
            0.036084000021219254,
            0.011746999807655811,
            0.010091999545693398,
            -0.06877200305461884
          ],
          [
            0.12065000087022781,
            0.10106900334358215,
            -0.022755000740289688,
            -0.12243500351905823,
            -0.06711799651384354
          ],
          [
            -0.026520999148488045,
            -0.1228950023651123,
            -0.20029300451278687,
            -0.13690200448036194,
            0.06558100134134293
          ],
          [
            0.07441700249910355,
            0.03223700076341629,
            0.08633700013160706,
            0.10790099948644638,
            0.03890400007367134
          ],
          [
            0.1868640035390854,
            0.18767400085926056,
            0.06501899659633636,
            0.01952899992465973,
            0.05593499913811684
          ]
        ],
        [
          [
            -0.07599499821662903,
            -0.04954199865460396,
            0.05009499937295914,
            0.015274000354111195,
            -0.1389079988002777
          ],
          [
            -0.05391800031065941,
            -0.08559499680995941,
            0.026964999735355377,
            0.1535930037498474,
            0.16913799941539764
          ],
          [
            -0.15773099660873413,
            -0.07631000131368637,
            0.12842300534248352,
            0.33498498797416687,
            0.19638000428676605
          ],
          [
            0.1647759974002838,
            0.2116210013628006,
            0.22795100510120392,
            0.15308000147342682,
            0.024365000426769257
          ],
          [
            0.03762400150299072,
            -0.036757998168468475,
            0.042357999831438065,
            0.003548000007867813,
            0.10124800354242325
          ]
        ],
        [
          [
            -0.04439299926161766,
            0.04329000040888786,
            -0.010125000029802322,
            0.014674000442028046,
            -0.0462380014359951
          ],
          [
            0.10350699722766876,
            0.21977700293064117,
            0.11718100309371948,
            0.029353000223636627,
            -0.15953999757766724
          ],
          [
            0.06670700013637543,
            -0.04922199994325638,
            -0.14948099851608276,
            -0.0859839990735054,
            -0.04325199872255325
          ],
          [
            -0.06083500012755394,
            -0.0976099967956543,
            -0.00943399965763092,
            0.02371400035917759,
            0.08966699987649918
          ],
          [
            0.11545100063085556,
            0.19116200506687164,
            0.1572359949350357,
            0.006647999864071608,
            -0.11636299639940262
          ]
        ],
        [
          [
            -0.013404999859631062,
            -0.012714999727904797,
            0.02633100003004074,
            0.0032679999712854624,
            -0.058758001774549484
          ],
          [
            0.09516000002622604,
            0.09646300226449966,
            -0.02261199988424778,
            0.012616000138223171,
            0.12189000099897385
          ],
          [
            -0.024150999262928963,
            0.015704000368714333,
            0.041241999715566635,
            0.06673400104045868,
            0.24204100668430328
          ],
          [
            0.12306199967861176,
            0.18237300217151642,
            0.3029470145702362,
            0.2022549957036972,
            0.09996700286865234
          ],
          [
            0.10382600128650665,
            0.06148799881339073,
            -0.014863000251352787,
            -0.052545998245477676,
            0.01292600017040968
          ]
        ],
        [
          [
            0.024942999705672264,
            -0.07197500020265579,
            -0.2113730013370514,
            -0.15742799639701843,
            -0.06853199750185013
          ],
          [
            -0.008073999546468258,
            -0.10258899629116058,
            -0.06575799733400345,
            -0.08613800257444382,
            -0.01296900026500225
          ],
          [
            0.04102800041437149,
            0.028667999431490898,
            0.08540300279855728,
            -0.022420000284910202,
            -0.1522350013256073
          ],
          [
            -0.17021100223064423,
            -0.07766400277614594,
            -0.11477000266313553,
            -0.023253999650478363,
            -0.06114000082015991
          ],
          [
            -0.08692999929189682,
            -0.21867400407791138,
            -0.1305769979953766,
            0.03788699954748154,
            0.030534999445080757
          ]
        ],
        [
          [
            0.0880659967660904,
            -0.03953700140118599,
            -0.06156099960207939,
            -0.06894499808549881,
            0.02342200092971325
          ],
          [
            0.10096699744462967,
            -0.03066200017929077,
            -0.03063499927520752,
            0.04284200072288513,
            0.11823700368404388
          ],
          [
            0.2533259987831116,
            0.1798900067806244,
